{"learner":{"attributes":{"scikit_learn":"{\"_estimator_type\": \"regressor\"}"},"feature_names":[],"feature_types":[],"gradient_booster":{"model":{"gbtree_model_param":{"num_parallel_tree":"1","num_trees":"200"},"iteration_indptr":[0,1,2,3,4,5,6,7,8,9,10,11,12,13,14,15,16,17,18,19,20,21,22,23,24,25,26,27,28,29,30,31,32,33,34,35,36,37,38,39,40,41,42,43,44,45,46,47,48,49,50,51,52,53,54,55,56,57,58,59,60,61,62,63,64,65,66,67,68,69,70,71,72,73,74,75,76,77,78,79,80,81,82,83,84,85,86,87,88,89,90,91,92,93,94,95,96,97,98,99,100,101,102,103,104,105,106,107,108,109,110,111,112,113,114,115,116,117,118,119,120,121,122,123,124,125,126,127,128,129,130,131,132,133,134,135,136,137,138,139,140,141,142,143,144,145,146,147,148,149,150,151,152,153,154,155,156,157,158,159,160,161,162,163,164,165,166,167,168,169,170,171,172,173,174,175,176,177,178,179,180,181,182,183,184,185,186,187,188,189,190,191,192,193,194,195,196,197,198,199,200],"tree_info":[0,0,0,0,0,0,0,0,0,0,0,0,0,0,0,0,0,0,0,0,0,0,0,0,0,0,0,0,0,0,0,0,0,0,0,0,0,0,0,0,0,0,0,0,0,0,0,0,0,0,0,0,0,0,0,0,0,0,0,0,0,0,0,0,0,0,0,0,0,0,0,0,0,0,0,0,0,0,0,0,0,0,0,0,0,0,0,0,0,0,0,0,0,0,0,0,0,0,0,0,0,0,0,0,0,0,0,0,0,0,0,0,0,0,0,0,0,0,0,0,0,0,0,0,0,0,0,0,0,0,0,0,0,0,0,0,0,0,0,0,0,0,0,0,0,0,0,0,0,0,0,0,0,0,0,0,0,0,0,0,0,0,0,0,0,0,0,0,0,0,0,0,0,0,0,0,0,0,0,0,0,0,0,0,0,0,0,0,0,0,0,0,0,0,0,0,0,0,0,0],"trees":[{"base_weights":[2.3134754E-7,-9.2434967E-1,7.7771276E-1,-1.6628464E0,-5.527736E-1,3.5295698E-1,1.2596673E0,-2.6230607E0,-1.4442393E0,-7.985115E-1,-3.178693E-1,1.2915362E-1,5.7590985E-1,1.0250899E0,1.5279946E0,-3.2711044E-1,-2.3041816E-1,-1.662781E-1,-1.2681049E-1,-9.3639714E-1,-6.575388E-1,-4.4588718E-1,-2.0098083E-1,3.944082E-2,2.4605957E-1,4.6427044E-1,6.902118E-1,9.086197E-2,1.1429007E-1,1.3979705E-1,1.6854718E-1,-1.0126998E-1,-8.599107E-2,-7.24274E-2,-6.03261E-2,-4.9510743E-2,-3.7311837E-2,-2.575083E-2,-1.3717209E-2,-1.9368458E-3,9.271508E-3,1.815847E-2,2.8268108E-2,3.9727416E-2,5.0915267E-2,6.2063884E-2,7.401315E-2],"categories":[],"categories_nodes":[],"categories_segments":[],"categories_sizes":[],"default_left":[0,0,0,0,0,0,0,0,0,0,0,0,0,0,0,0,0,0,0,0,0,0,0,0,0,0,0,0,0,0,0,0,0,0,0,0,0,0,0,0,0,0,0,0,0,0,0],"id":0,"left_children":[1,3,5,7,9,11,13,15,17,19,21,23,25,27,29,-1,-1,-1,-1,31,33,35,37,39,41,43,45,-1,-1,-1,-1,-1,-1,-1,-1,-1,-1,-1,-1,-1,-1,-1,-1,-1,-1,-1,-1],"loss_changes":[2.0610247E3,3.5855505E2,3.182934E2,8.81521E1,5.0140015E1,4.1290733E1,4.4319458E1,8.994629E0,1.1710327E1,7.664917E0,6.614174E0,4.3427987E0,4.9752045E0,4.340393E0,4.564636E0,0E0,0E0,0E0,0E0,3.7226868E-1,3.3823395E-1,5.7816315E-1,8.15917E-1,7.411886E-1,3.7367916E-1,4.3820572E-1,2.4568176E-1,0E0,0E0,0E0,0E0,0E0,0E0,0E0,0E0,0E0,0E0,0E0,0E0,0E0,0E0,0E0,0E0,0E0,0E0,0E0,0E0],"parents":[2147483647,0,0,1,1,2,2,3,3,4,4,5,5,6,6,7,7,8,8,9,9,10,10,11,11,12,12,13,13,14,14,19,19,20,20,21,21,22,22,23,23,24,24,25,25,26,26],"right_children":[2,4,6,8,10,12,14,16,18,20,22,24,26,28,30,-1,-1,-1,-1,32,34,36,38,40,42,44,46,-1,-1,-1,-1,-1,-1,-1,-1,-1,-1,-1,-1,-1,-1,-1,-1,-1,-1,-1,-1],"split_conditions":[-4.434312E-1,-8.5287696E-1,4.6590942E-1,-9.888431E-1,-6.866352E-1,-1.0533116E-1,1.3813052E0,-1.0387948E0,-9.2201746E-1,-7.700911E-1,-5.844169E-1,-2.8646097E-1,1.5118921E-1,8.380497E-1,2.1440313E0,-3.2711044E-1,-2.3041816E-1,-1.662781E-1,-1.2681049E-1,-8.116485E-1,-7.2738844E-1,-6.313837E-1,-5.1643384E-1,-3.642151E-1,-2.1217911E-1,5.086511E-3,2.803205E-1,9.086197E-2,1.1429007E-1,1.3979705E-1,1.6854718E-1,-1.0126998E-1,-8.599107E-2,-7.24274E-2,-6.03261E-2,-4.9510743E-2,-3.7311837E-2,-2.575083E-2,-1.3717209E-2,-1.9368458E-3,9.271508E-3,1.815847E-2,2.8268108E-2,3.9727416E-2,5.0915267E-2,6.2063884E-2,7.401315E-2],"split_indices":[2,2,2,2,2,2,2,2,2,2,2,2,2,2,2,0,0,0,0,2,2,2,2,2,2,2,2,0,0,0,0,0,0,0,0,0,0,0,0,0,0,0,0,0,0,0,0],"split_type":[0,0,0,0,0,0,0,0,0,0,0,0,0,0,0,0,0,0,0,0,0,0,0,0,0,0,0,0,0,0,0,0,0,0,0,0,0,0,0,0,0,0,0,0,0,0,0],"sum_hessian":[2.865E3,1.309E3,1.556E3,4.37E2,8.72E2,8.28E2,7.28E2,7.9E1,3.58E2,4.25E2,4.47E2,4.14E2,4.14E2,3.91E2,3.37E2,2.3E1,5.6E1,1.56E2,2.02E2,2.12E2,2.13E2,2.12E2,2.35E2,2.35E2,1.79E2,2.12E2,2.02E2,2.01E2,1.9E2,1.9E2,1.47E2,1E2,1.12E2,9E1,1.23E2,1.23E2,8.9E1,1.23E2,1.12E2,1.12E2,1.23E2,6.7E1,1.12E2,8.9E1,1.23E2,9E1,1.12E2],"tree_param":{"num_deleted":"0","num_feature":"4","num_nodes":"47","size_leaf_vector":"1"}},{"base_weights":[-1.7529189E-4,-8.265121E-1,7.058992E-1,-1.5262947E0,-5.054137E-1,3.389573E-1,1.1535453E0,-2.4511986E0,-1.3379816E0,-7.518375E-1,-2.9695266E-1,1.3178839E-1,5.453305E-1,9.529886E-1,1.391705E0,-3.2750127E-1,-2.2203079E-1,-1.5673599E-1,-1.1863194E0,-8.722215E-1,-6.2057996E-1,-4.2245135E-1,-1.810044E-1,4.8922054E-2,2.4476725E-1,4.4487455E-1,6.54525E-1,8.567992E-2,1.0698432E-1,1.2801318E-1,1.5281391E-1,-1.2673664E-1,-1.0838971E-1,-9.359696E-2,-7.930476E-2,-6.819032E-2,-5.6624662E-2,-4.7100864E-2,-3.540427E-2,-2.2818103E-2,-1.0541124E-2,-7.73624E-4,9.598476E-3,1.9995686E-2,2.8735591E-2,3.900157E-2,4.9579646E-2,5.9365977E-2,6.9720946E-2],"categories":[],"categories_nodes":[],"categories_segments":[],"categories_sizes":[],"default_left":[0,0,0,0,0,0,0,0,0,0,0,0,0,0,0,0,0,0,0,0,0,0,0,0,0,0,0,0,0,0,0,0,0,0,0,0,0,0,0,0,0,0,0,0,0,0,0,0,0],"id":1,"left_children":[1,3,5,7,9,11,13,15,17,19,21,23,25,27,29,-1,-1,-1,31,33,35,37,39,41,43,45,47,-1,-1,-1,-1,-1,-1,-1,-1,-1,-1,-1,-1,-1,-1,-1,-1,-1,-1,-1,-1,-1,-1],"loss_changes":[1.6727665E3,2.9605603E2,2.5355505E2,6.900159E1,4.6369095E1,3.631189E1,3.1917786E1,5.852997E0,1.0212036E1,6.016266E0,7.097351E0,3.9762993E0,4.3817215E0,3.3659058E0,2.854065E0,0E0,0E0,0E0,3.9440918E-1,3.3781433E-1,2.8691864E-1,6.1717606E-1,8.9603424E-1,6.5936625E-1,2.8605556E-1,4.3517303E-1,1.1089325E-1,0E0,0E0,0E0,0E0,0E0,0E0,0E0,0E0,0E0,0E0,0E0,0E0,0E0,0E0,0E0,0E0,0E0,0E0,0E0,0E0,0E0,0E0],"parents":[2147483647,0,0,1,1,2,2,3,3,4,4,5,5,6,6,7,7,8,8,9,9,10,10,11,11,12,12,13,13,14,14,18,18,19,19,20,20,21,21,22,22,23,23,24,24,25,25,26,26],"right_children":[2,4,6,8,10,12,14,16,18,20,22,24,26,28,30,-1,-1,-1,32,34,36,38,40,42,44,46,48,-1,-1,-1,-1,-1,-1,-1,-1,-1,-1,-1,-1,-1,-1,-1,-1,-1,-1,-1,-1,-1,-1],"split_conditions":[-4.31455E-1,-8.6140525E-1,5.202715E-1,-1.0006123E0,-6.982825E-1,-7.704143E-2,1.4783943E0,-1.0505518E0,-9.33287E-1,-7.795941E-1,-5.898385E-1,-2.710003E-1,1.9218616E-1,9.567155E-1,2.2544248E0,-3.2750127E-1,-2.2203079E-1,-1.5673599E-1,-8.94544E-1,-8.165706E-1,-7.369402E-1,-6.4509E-1,-5.039459E-1,-3.565274E-1,-1.7659156E-1,4.6156574E-2,3.3451203E-1,8.567992E-2,1.0698432E-1,1.2801318E-1,1.5281391E-1,-1.2673664E-1,-1.0838971E-1,-9.359696E-2,-7.930476E-2,-6.819032E-2,-5.6624662E-2,-4.7100864E-2,-3.540427E-2,-2.2818103E-2,-1.0541124E-2,-7.73624E-4,9.598476E-3,1.9995686E-2,2.8735591E-2,3.900157E-2,4.9579646E-2,5.9365977E-2,6.9720946E-2],"split_indices":[2,2,2,2,2,2,2,2,2,2,2,2,2,2,2,0,0,0,2,2,2,2,2,2,2,2,2,0,0,0,0,0,0,0,0,0,0,0,0,0,0,0,0,0,0,0,0,0,0],"split_type":[0,0,0,0,0,0,0,0,0,0,0,0,0,0,0,0,0,0,0,0,0,0,0,0,0,0,0,0,0,0,0,0,0,0,0,0,0,0,0,0,0,0,0,0,0,0,0,0,0],"sum_hessian":[2.865E3,1.32E3,1.545E3,4.14E2,9.06E2,8.5E2,6.95E2,6.8E1,3.46E2,4.14E2,4.92E2,4.25E2,4.25E2,3.8E2,3.15E2,1.2E1,5.6E1,1.34E2,2.12E2,2.13E2,2.01E2,2.35E2,2.57E2,2.46E2,1.79E2,2.24E2,2.01E2,2.13E2,1.67E2,1.79E2,1.36E2,1.12E2,1E2,1.12E2,1.01E2,8.9E1,1.12E2,1.34E2,1.01E2,1.57E2,1E2,1.12E2,1.34E2,9E1,8.9E1,1.12E2,1.12E2,8.9E1,1.12E2],"tree_param":{"num_deleted":"0","num_feature":"4","num_nodes":"49","size_leaf_vector":"1"}},{"base_weights":[-3.6927394E-4,-7.565349E-1,6.260717E-1,-1.4013891E0,-4.7628757E-1,2.7148166E-1,1.0104786E0,-2.3133805E0,-1.242977E0,-7.1904683E-1,-2.9987854E-1,9.563886E-2,4.5188686E-1,8.0222094E-1,1.2210584E0,-2.972704E-1,-2.071501E-1,-1.4925785E-1,-1.1120973E0,-8.234991E-1,-6.108299E-1,-4.1651887E-1,-1.8731157E-1,1.4395032E-2,1.795999E-1,3.571591E-1,5.34709E-1,6.9665216E-2,8.822158E-2,1.0881378E-1,1.3386992E-1,-1.1875544E-1,-1.009462E-1,-8.761214E-2,-7.547106E-2,-6.532105E-2,-5.4247748E-2,-4.6033446E-2,-3.55292E-2,-2.441299E-2,-1.2868486E-2,-2.9914833E-3,5.422451E-3,1.2803803E-2,2.1999009E-2,3.052376E-2,3.902975E-2,4.8029233E-2,5.7861496E-2],"categories":[],"categories_nodes":[],"categories_segments":[],"categories_sizes":[],"default_left":[0,0,0,0,0,0,0,0,0,0,0,0,0,0,0,0,0,0,0,0,0,0,0,0,0,0,0,0,0,0,0,0,0,0,0,0,0,0,0,0,0,0,0,0,0,0,0,0,0],"id":2,"left_children":[1,3,5,7,9,11,13,15,17,19,21,23,25,27,29,-1,-1,-1,31,33,35,37,39,41,43,45,47,-1,-1,-1,-1,-1,-1,-1,-1,-1,-1,-1,-1,-1,-1,-1,-1,-1,-1,-1,-1,-1,-1],"loss_changes":[1.358078E3,2.3408606E2,2.1345483E2,5.390143E1,3.8626587E1,2.5874443E1,3.1999329E1,2.93219E0,9.349121E0,3.8036194E0,6.8414154E0,2.8282607E0,2.9707794E0,2.6029358E0,4.3601685E0,0E0,0E0,0E0,5.437622E-1,3.0166626E-2,1.9894409E-1,5.285797E-1,8.679733E-1,3.7576795E-1,3.9668274E-1,2.0950127E-1,2.30999E-1,0E0,0E0,0E0,0E0,0E0,0E0,0E0,0E0,0E0,0E0,0E0,0E0,0E0,0E0,0E0,0E0,0E0,0E0,0E0,0E0,0E0,0E0],"parents":[2147483647,0,0,1,1,2,2,3,3,4,4,5,5,6,6,7,7,8,8,9,9,10,10,11,11,12,12,13,13,14,14,18,18,19,19,20,20,21,21,22,22,23,23,24,24,25,25,26,26],"right_children":[2,4,6,8,10,12,14,16,18,20,22,24,26,28,30,-1,-1,-1,32,34,36,38,40,42,44,46,48,-1,-1,-1,-1,-1,-1,-1,-1,-1,-1,-1,-1,-1,-1,-1,-1,-1,-1,-1,-1,-1,-1],"split_conditions":[-4.5121637E-1,-8.6816704E-1,4.308214E-1,-1.0072399E0,-7.139137E-1,-1.1534587E-1,1.2821571E0,-1.0505518E0,-9.45044E-1,-7.960416E-1,-6.0683423E-1,-3.0696556E-1,1.08340375E-1,7.2608477E-1,1.9422508E0,-2.972704E-1,-2.071501E-1,-1.4925785E-1,-9.016591E-1,-8.3002096E-1,-7.50147E-1,-6.6558236E-1,-5.3593934E-1,-3.848415E-1,-2.2377765E-1,-2.1777768E-2,2.3875092E-1,6.9665216E-2,8.822158E-2,1.0881378E-1,1.3386992E-1,-1.1875544E-1,-1.009462E-1,-8.761214E-2,-7.547106E-2,-6.532105E-2,-5.4247748E-2,-4.6033446E-2,-3.55292E-2,-2.441299E-2,-1.2868486E-2,-2.9914833E-3,5.422451E-3,1.2803803E-2,2.1999009E-2,3.052376E-2,3.902975E-2,4.8029233E-2,5.7861496E-2],"split_indices":[2,2,2,2,2,2,2,2,2,2,2,2,2,2,2,0,0,0,2,2,2,2,2,2,2,2,2,0,0,0,0,0,0,0,0,0,0,0,0,0,0,0,0,0,0,0,0,0,0],"split_type":[0,0,0,0,0,0,0,0,0,0,0,0,0,0,0,0,0,0,0,0,0,0,0,0,0,0,0,0,0,0,0,0,0,0,0,0,0,0,0,0,0,0,0,0,0,0,0,0,0],"sum_hessian":[2.865E3,1.298E3,1.567E3,3.92E2,9.06E2,8.16E2,7.51E2,5.6E1,3.36E2,3.8E2,5.26E2,4.14E2,4.02E2,3.8E2,3.71E2,1.2E1,4.4E1,1.12E2,2.24E2,1.9E2,1.9E2,2.57E2,2.69E2,2.11E2,2.03E2,1.9E2,2.12E2,1.68E2,2.12E2,1.79E2,1.92E2,1.23E2,1.01E2,1.01E2,8.9E1,1.12E2,7.8E1,1.46E2,1.11E2,1.35E2,1.34E2,1E2,1.11E2,9.1E1,1.12E2,7.8E1,1.12E2,1E2,1.12E2],"tree_param":{"num_deleted":"0","num_feature":"4","num_nodes":"49","size_leaf_vector":"1"}},{"base_weights":[-5.6323403E-4,-6.8720156E-1,5.595322E-1,-1.2754605E0,-4.3868765E-1,2.3604728E-1,9.051779E-1,-1.8882867E0,-1.080109E0,-6.589317E-1,-2.7862757E-1,7.7651076E-2,3.977799E-1,7.069423E-1,1.0890409E0,-2.3194502E-1,-1.5904094E-1,-1.2115566E-1,-9.772711E-2,-7.593757E-2,-5.6616503E-1,-3.8323656E-1,-1.7763592E-1,1.9054555E-3,1.491204E-1,3.1285387E-1,4.724655E-1,6.131756E-2,7.7317804E-2,9.7859934E-2,1.2136014E-1,-6.0907584E-2,-5.0599743E-2,-4.2209573E-2,-3.2963764E-2,-2.2876631E-2,-1.2557535E-2,-3.421255E-3,3.7650678E-3,1.0433492E-2,1.8857574E-2,2.659995E-2,3.4325648E-2,4.242847E-2,5.1134862E-2],"categories":[],"categories_nodes":[],"categories_segments":[],"categories_sizes":[],"default_left":[0,0,0,0,0,0,0,0,0,0,0,0,0,0,0,0,0,0,0,0,0,0,0,0,0,0,0,0,0,0,0,0,0,0,0,0,0,0,0,0,0,0,0,0,0],"id":3,"left_children":[1,3,5,7,9,11,13,15,17,19,21,23,25,27,29,-1,-1,-1,-1,-1,31,33,35,37,39,41,43,-1,-1,-1,-1,-1,-1,-1,-1,-1,-1,-1,-1,-1,-1,-1,-1,-1,-1],"loss_changes":[1.1025995E3,1.8773389E2,1.7633615E2,4.36922E1,3.1790222E1,2.0898884E1,2.704004E1,7.998596E0,2.763153E0,3.120163E0,5.499485E0,2.2409E0,2.4146576E0,1.8238678E0,4.232483E0,0E0,0E0,0E0,0E0,0E0,2.1334076E-1,3.982277E-1,6.899805E-1,2.6207945E-1,3.5670137E-1,1.8219757E-1,1.8208313E-1,0E0,0E0,0E0,0E0,0E0,0E0,0E0,0E0,0E0,0E0,0E0,0E0,0E0,0E0,0E0,0E0,0E0,0E0],"parents":[2147483647,0,0,1,1,2,2,3,3,4,4,5,5,6,6,7,7,8,8,9,9,10,10,11,11,12,12,13,13,14,14,20,20,21,21,22,22,23,23,24,24,25,25,26,26],"right_children":[2,4,6,8,10,12,14,16,18,20,22,24,26,28,30,-1,-1,-1,-1,-1,32,34,36,38,40,42,44,-1,-1,-1,-1,-1,-1,-1,-1,-1,-1,-1,-1,-1,-1,-1,-1,-1,-1],"split_conditions":[-4.5799032E-1,-8.71883E-1,4.1415456E-1,-9.8241025E-1,-7.194693E-1,-1.3184212E-1,1.2287575E0,-1.0290481E0,-9.279873E-1,-8.0142665E-1,-6.1385185E-1,-3.2059872E-1,9.300154E-2,6.778753E-1,1.991837E0,-2.3194502E-1,-1.5904094E-1,-1.2115566E-1,-9.772711E-2,-7.593757E-2,-7.605272E-1,-6.7024857E-1,-5.4480886E-1,-3.941983E-1,-2.406516E-1,-3.9090306E-2,2.2933319E-1,6.131756E-2,7.7317804E-2,9.7859934E-2,1.2136014E-1,-6.0907584E-2,-5.0599743E-2,-4.2209573E-2,-3.2963764E-2,-2.2876631E-2,-1.2557535E-2,-3.421255E-3,3.7650678E-3,1.0433492E-2,1.8857574E-2,2.659995E-2,3.4325648E-2,4.242847E-2,5.1134862E-2],"split_indices":[2,2,2,2,2,2,2,2,2,2,2,2,2,2,2,0,0,0,0,0,2,2,2,2,2,2,2,0,0,0,0,0,0,0,0,0,0,0,0,0,0,0,0,0,0],"split_type":[0,0,0,0,0,0,0,0,0,0,0,0,0,0,0,0,0,0,0,0,0,0,0,0,0,0,0,0,0,0,0,0,0,0,0,0,0,0,0,0,0,0,0,0,0],"sum_hessian":[2.865E3,1.287E3,1.578E3,3.81E2,9.06E2,8.16E2,7.62E2,9E1,2.91E2,3.8E2,5.26E2,4.13E2,4.03E2,3.69E2,3.93E2,3.4E1,5.6E1,1.23E2,1.68E2,1.79E2,2.01E2,2.57E2,2.69E2,2.01E2,2.12E2,1.91E2,2.12E2,1.57E2,2.12E2,2.13E2,1.8E2,1.12E2,8.9E1,1.45E2,1.12E2,1.34E2,1.35E2,1E2,1.01E2,1.01E2,1.11E2,7.9E1,1.12E2,1E2,1.12E2],"tree_param":{"num_deleted":"0","num_feature":"4","num_nodes":"45","size_leaf_vector":"1"}},{"base_weights":[-6.345766E-4,-6.2449557E-1,4.997094E-1,-1.1608031E0,-4.0419254E-1,2.0466392E-1,8.108819E-1,-1.9888092E0,-1.0404071E0,-6.0338336E-1,-2.5914326E-1,6.250674E-2,3.5018513E-1,6.4780843E-1,9.9661684E-1,-2.5298944E-1,-1.7464714E-1,-1.3011871E-1,-9.369868E-1,-7.009381E-2,-5.239788E-1,-3.5267895E-1,-1.6846912E-1,-5.1415684E-3,1.2668562E-1,2.7359313E-1,4.169089E-1,5.666297E-1,7.29795E-2,9.241724E-1,1.14483766E-1,-9.937074E-2,-8.350648E-2,-5.6209553E-2,-4.662816E-2,-3.868256E-2,-3.0543922E-2,-2.1807414E-2,-1.2518494E-2,-3.7130397E-3,2.689767E-3,8.671197E-3,1.6129317E-2,2.322624E-2,3.006723E-2,3.7445053E-2,4.5154467E-2,5.270393E-2,6.0531385E-2,8.538212E-2,9.753133E-2],"categories":[],"categories_nodes":[],"categories_segments":[],"categories_sizes":[],"default_left":[0,0,0,0,0,0,0,0,0,0,0,0,0,0,0,0,0,0,0,0,0,0,0,0,0,0,0,0,0,0,0,0,0,0,0,0,0,0,0,0,0,0,0,0,0,0,0,0,0,0,0],"id":4,"left_children":[1,3,5,7,9,11,13,15,17,19,21,23,25,27,29,-1,-1,-1,31,-1,33,35,37,39,41,43,45,47,-1,49,-1,-1,-1,-1,-1,-1,-1,-1,-1,-1,-1,-1,-1,-1,-1,-1,-1,-1,-1,-1,-1],"loss_changes":[8.9491986E2,1.5029044E2,1.4590381E2,3.4915283E1,2.6020218E1,1.6899982E1,2.2797638E1,1.6133881E0,7.572998E0,2.5840607E0,4.4017334E0,1.8024123E0,1.9505806E0,2.348526E0,2.8075867E0,0E0,0E0,0E0,5.40329E-1,0E0,2.0853806E-1,2.9802322E-1,5.502744E-1,2.0905295E-1,2.8067613E-1,1.439333E-1,1.4562225E-1,7.194519E-3,0E0,5.5908203E-2,0E0,0E0,0E0,0E0,0E0,0E0,0E0,0E0,0E0,0E0,0E0,0E0,0E0,0E0,0E0,0E0,0E0,0E0,0E0,0E0,0E0],"parents":[2147483647,0,0,1,1,2,2,3,3,4,4,5,5,6,6,7,7,8,8,9,9,10,10,11,11,12,12,13,13,14,14,18,18,20,20,21,21,22,22,23,23,24,24,25,25,26,26,27,27,29,29],"right_children":[2,4,6,8,10,12,14,16,18,20,22,24,26,28,30,-1,-1,-1,32,-1,34,36,38,40,42,44,46,48,-1,50,-1,-1,-1,-1,-1,-1,-1,-1,-1,-1,-1,-1,-1,-1,-1,-1,-1,-1,-1,-1,-1],"split_conditions":[-4.6184024E-1,-8.7656134E-1,3.9665928E-1,-1.0170597E0,-7.226004E-1,-1.4423259E-1,1.3247013E0,-1.23775E0,-9.5594805E-1,-8.116485E-1,-6.20041E-1,-3.2611775E-1,7.934401E-2,7.7020067E-1,2.3867967E0,-2.5298944E-1,-1.7464714E-1,-1.3011871E-1,-9.0626436E-1,-7.009381E-2,-7.654736E-1,-6.7521936E-1,-5.518021E-1,-4.004971E-1,-2.524207E-1,-5.389307E-2,2.1215467E-1,5.782155E-1,7.29795E-2,1.6864493E0,1.14483766E-1,-9.937074E-2,-8.350648E-2,-5.6209553E-2,-4.662816E-2,-3.868256E-2,-3.0543922E-2,-2.1807414E-2,-1.2518494E-2,-3.7130397E-3,2.689767E-3,8.671197E-3,1.6129317E-2,2.322624E-2,3.006723E-2,3.7445053E-2,4.5154467E-2,5.270393E-2,6.0531385E-2,8.538212E-2,9.753133E-2],"split_indices":[2,2,2,2,2,2,2,3,2,2,2,2,2,2,2,0,0,0,2,0,2,2,2,2,2,2,2,2,0,2,0,0,0,0,0,0,0,0,0,0,0,0,0,0,0,0,0,0,0,0,0],"split_type":[0,0,0,0,0,0,0,0,0,0,0,0,0,0,0,0,0,0,0,0,0,0,0,0,0,0,0,0,0,0,0,0,0,0,0,0,0,0,0,0,0,0,0,0,0,0,0,0,0,0,0],"sum_hessian":[2.865E3,1.275E3,1.59E3,3.7E2,9.05E2,8.17E2,7.73E2,4.5E1,3.25E2,3.8E2,5.25E2,4.14E2,4.03E2,4.14E2,3.59E2,1.1E1,3.4E1,8.9E1,2.36E2,1.67E2,2.13E2,2.57E2,2.68E2,2.02E2,2.12E2,1.9E2,2.13E2,2.12E2,2.02E2,2.46E2,1.13E2,1.46E2,9E1,1.23E2,9E1,1.45E2,1.12E2,1.23E2,1.45E2,1.01E2,1.01E2,1E2,1.12E2,7.9E1,1.11E2,1.01E2,1.12E2,1.12E2,1E2,1.11E2,1.35E2],"tree_param":{"num_deleted":"0","num_feature":"4","num_nodes":"51","size_leaf_vector":"1"}},{"base_weights":[-7.0159597E-4,-5.4116595E-1,4.6828812E-1,-9.755973E-1,-3.1163606E-1,2.3317488E-1,7.682871E-1,-1.5051334E0,-8.224266E-1,-4.4146705E-1,-1.5912479E-1,9.7628474E-2,3.7231877E-1,6.462828E-1,9.3558997E-1,-1.899853E0,-1.2798347E-1,-9.308659E-2,-7.221718E-2,-5.246567E-1,-3.5640678E-1,-2.3100907E-1,-1.0065026E-1,3.5763483E-2,1.6906941E-1,2.9630125E-1,4.325189E-1,5.7448324E-2,7.2805405E-2,8.745765E-2,1.05208986E-1,-2.2979875E-1,-1.6216253E-1,-5.574661E-2,-4.6625204E-2,-3.8833406E-2,-3.244375E-2,-2.4930207E-2,-1.8716102E-2,-1.3377129E-2,-5.8990284E-3,1.3008666E-4,6.688052E-3,1.3368745E-2,2.0279383E-2,2.5864635E-2,3.2000422E-2,3.8222317E-2,4.6056066E-2],"categories":[],"categories_nodes":[],"categories_segments":[],"categories_sizes":[],"default_left":[0,0,0,0,0,0,0,0,0,0,0,0,0,0,0,0,0,0,0,0,0,0,0,0,0,0,0,0,0,0,0,0,0,0,0,0,0,0,0,0,0,0,0,0,0,0,0,0,0],"id":5,"left_children":[1,3,5,7,9,11,13,15,17,19,21,23,25,27,29,31,-1,-1,-1,33,35,37,39,41,43,45,47,-1,-1,-1,-1,-1,-1,-1,-1,-1,-1,-1,-1,-1,-1,-1,-1,-1,-1,-1,-1,-1,-1],"loss_changes":[7.267048E2,1.325163E2,1.0809015E2,3.607251E1,1.7215752E1,1.6221367E1,1.31528015E1,6.6393433E0,3.230667E0,3.1458588E0,1.6707191E0,1.929779E0,1.8167572E0,1.8890991E0,1.0843353E0,1.5055084E-1,0E0,0E0,0E0,1.9231415E-1,1.1489487E-1,9.7720146E-2,3.011887E-1,2.5299338E-1,2.1511602E-1,8.770561E-2,1.5539932E-1,0E0,0E0,0E0,0E0,0E0,0E0,0E0,0E0,0E0,0E0,0E0,0E0,0E0,0E0,0E0,0E0,0E0,0E0,0E0,0E0,0E0,0E0],"parents":[2147483647,0,0,1,1,2,2,3,3,4,4,5,5,6,6,7,7,8,8,9,9,10,10,11,11,12,12,13,13,14,14,15,15,19,19,20,20,21,21,22,22,23,23,24,24,25,25,26,26],"right_children":[2,4,6,8,10,12,14,16,18,20,22,24,26,28,30,32,-1,-1,-1,34,36,38,40,42,44,46,48,-1,-1,-1,-1,-1,-1,-1,-1,-1,-1,-1,-1,-1,-1,-1,-1,-1,-1,-1,-1,-1,-1],"split_conditions":[-4.2525366E-1,-8.457497E-1,5.5425084E-1,-9.734921E-1,-6.6111106E-1,-5.389307E-2,1.5890069E0,-1.0290481E0,-9.118687E-1,-7.50147E-1,-5.6277925E-1,-2.710003E-1,1.7929618E-1,1.0051565E0,2.577113E0,-1.23775E0,-1.2798347E-1,-9.308659E-2,-7.221718E-2,-7.88756E-1,-7.0364314E-1,-5.972825E-1,-4.9787858E-1,-3.4446588E-1,-1.690866E-1,3.489916E-2,3.1639537E-1,5.7448324E-2,7.2805405E-2,8.745765E-2,1.05208986E-1,-2.2979875E-1,-1.6216253E-1,-5.574661E-2,-4.6625204E-2,-3.8833406E-2,-3.244375E-2,-2.4930207E-2,-1.8716102E-2,-1.3377129E-2,-5.8990284E-3,1.3008666E-4,6.688052E-3,1.3368745E-2,2.0279383E-2,2.5864635E-2,3.2000422E-2,3.8222317E-2,4.6056066E-2],"split_indices":[2,2,2,2,2,2,2,2,2,2,2,2,2,2,2,3,0,0,0,2,2,2,2,2,2,2,2,0,0,0,0,0,0,0,0,0,0,0,0,0,0,0,0,0,0,0,0,0,0],"split_type":[0,0,0,0,0,0,0,0,0,0,0,0,0,0,0,0,0,0,0,0,0,0,0,0,0,0,0,0,0,0,0,0,0,0,0,0,0,0,0,0,0,0,0,0,0,0,0,0,0],"sum_hessian":[2.865E3,1.331E3,1.534E3,4.59E2,8.72E2,8.61E2,6.73E2,1.01E2,3.58E2,4.7E2,4.02E2,4.37E2,4.24E2,3.92E2,2.81E2,3.4E1,6.7E1,1.68E2,1.9E2,2.35E2,2.35E2,1.79E2,2.23E2,2.35E2,2.02E2,1.9E2,2.34E2,2.13E2,1.79E2,1.9E2,9.1E1,1.1E1,2.3E1,1.45E2,9E1,1.12E2,1.23E2,1.23E2,5.6E1,1.23E2,1E2,1.12E2,1.23E2,1.01E2,1.01E2,7.8E1,1.12E2,8.9E1,1.45E2],"tree_param":{"num_deleted":"0","num_feature":"4","num_nodes":"49","size_leaf_vector":"1"}},{"base_weights":[-7.7672064E-4,-5.112979E-1,4.0235066E-1,-9.551785E-1,-3.350416E-1,1.5986548E-1,6.5451694E-1,-1.5538677E0,-8.394014E-1,-5.0189185E-1,-2.1967056E-1,4.505926E-2,2.774019E-1,5.0521487E-1,7.933553E-1,-2.061005E-1,-1.372831E-1,-1.01784825E-1,-7.592227E-1,-5.825603E-2,-4.396969E-1,-2.9508623E-1,-1.4315794E-1,-9.454558E-3,9.68022E-2,2.1540898E-1,3.3143577E-1,4.3822724E-2,5.5544253E-2,6.9697134E-2,8.7529016E-1,-7.955363E-2,-6.8755746E-2,-4.6844862E-2,-3.9519798E-2,-3.2464214E-2,-2.5766844E-2,-1.8305112E-2,-1.0829555E-2,-3.5321917E-3,1.6505495E-3,6.8310397E-3,1.2713827E-2,1.8219821E-2,2.3672085E-2,2.944524E-2,3.5590395E-2,8.247107E-2,9.6828036E-2],"categories":[],"categories_nodes":[],"categories_segments":[],"categories_sizes":[],"default_left":[0,0,0,0,0,0,0,0,0,0,0,0,0,0,0,0,0,0,0,0,0,0,0,0,0,0,0,0,0,0,0,0,0,0,0,0,0,0,0,0,0,0,0,0,0,0,0,0,0],"id":6,"left_children":[1,3,5,7,9,11,13,15,17,19,21,23,25,27,29,-1,-1,-1,31,-1,33,35,37,39,41,43,45,-1,-1,-1,47,-1,-1,-1,-1,-1,-1,-1,-1,-1,-1,-1,-1,-1,-1,-1,-1,-1,-1],"loss_changes":[5.90043E2,9.8649475E1,9.785217E1,2.357956E1,1.734922E1,1.102552E1,1.5871338E1,2.403778E0,3.562439E0,1.6001968E0,3.062149E0,1.1715078E0,1.2818966E0,1.0385208E0,2.5882874E0,0E0,0E0,0E0,7.3394775E-3,0E0,8.7387085E-2,2.1494675E-1,3.5429335E-1,1.3690116E-1,1.754173E-1,9.2056274E-2,8.8853836E-2,0E0,0E0,0E0,2.12677E-1,0E0,0E0,0E0,0E0,0E0,0E0,0E0,0E0,0E0,0E0,0E0,0E0,0E0,0E0,0E0,0E0,0E0,0E0],"parents":[2147483647,0,0,1,1,2,2,3,3,4,4,5,5,6,6,7,7,8,8,9,9,10,10,11,11,12,12,13,13,14,14,18,18,20,20,21,21,22,22,23,23,24,24,25,25,26,26,30,30],"right_children":[2,4,6,8,10,12,14,16,18,20,22,24,26,28,30,-1,-1,-1,32,-1,34,36,38,40,42,44,46,-1,-1,-1,48,-1,-1,-1,-1,-1,-1,-1,-1,-1,-1,-1,-1,-1,-1,-1,-1,-1,-1],"split_conditions":[-4.7391394E-1,-8.81386E-1,3.7424192E-1,-1.0072399E0,-7.3226184E-1,-1.5590423E-1,1.1782088E0,-1.0505518E0,-9.513184E-1,-8.219434E-1,-6.257672E-1,-3.3380547E-1,6.155632E-2,6.461742E-1,1.8288116E0,-2.061005E-1,-1.372831E-1,-1.01784825E-1,-9.0626436E-1,-5.825603E-2,-7.755736E-1,-6.827365E-1,-5.5729675E-1,-4.0544355E-1,-2.524207E-1,-6.46997E-2,1.7929618E-1,4.3822724E-2,5.5544253E-2,6.9697134E-2,2.6893337E0,-7.955363E-2,-6.8755746E-2,-4.6844862E-2,-3.9519798E-2,-3.2464214E-2,-2.5766844E-2,-1.8305112E-2,-1.0829555E-2,-3.5321917E-3,1.6505495E-3,6.8310397E-3,1.2713827E-2,1.8219821E-2,2.3672085E-2,2.944524E-2,3.5590395E-2,8.247107E-2,9.6828036E-2],"split_indices":[2,2,2,2,2,2,2,2,2,2,2,2,2,2,2,0,0,0,2,0,2,2,2,2,2,2,2,0,0,0,2,0,0,0,0,0,0,0,0,0,0,0,0,0,0,0,0,0,0],"split_type":[0,0,0,0,0,0,0,0,0,0,0,0,0,0,0,0,0,0,0,0,0,0,0,0,0,0,0,0,0,0,0,0,0,0,0,0,0,0,0,0,0,0,0,0,0,0,0,0,0],"sum_hessian":[2.865E3,1.264E3,1.601E3,3.58E2,9.06E2,8.17E2,7.84E2,5.6E1,3.02E2,3.69E2,5.37E2,4.14E2,4.03E2,3.8E2,4.04E2,1.2E1,4.4E1,9E1,2.12E2,1.57E2,2.12E2,2.69E2,2.68E2,2.02E2,2.12E2,1.9E2,2.13E2,1.67E2,2.13E2,1.9E2,2.14E2,1.34E2,7.8E1,1.23E2,8.9E1,1.46E2,1.23E2,1.23E2,1.45E2,1.01E2,1.01E2,1.11E2,1.01E2,7.8E1,1.12E2,9E1,1.23E2,1.45E2,6.9E1],"tree_param":{"num_deleted":"0","num_feature":"4","num_nodes":"49","size_leaf_vector":"1"}},{"base_weights":[-8.220182E-4,-4.5726037E-1,3.6524722E-1,-8.290055E-1,-2.847033E-1,1.6692892E-1,6.129791E-1,-1.3470266E0,-7.201589E-1,-4.14384E-1,-1.7815612E-1,5.4389797E-2,2.8217635E-1,5.106948E-1,7.5576067E-1,-1.9041479E-1,-1.2085356E-1,-8.493988E-1,-6.415396E-1,-4.714437E-1,-3.442442E-1,-2.3609705E-1,-1.10625245E-1,5.815309E-3,1.1322482E-1,2.199751E-1,3.3422077E-1,4.4588238E-2,5.7618428E-2,7.0182584E-2,8.484384E-2,-9.285461E-2,-7.7056356E-2,-6.755834E-2,-5.752427E-2,-5.219088E-2,-4.386629E-2,-3.7121214E-2,-3.137898E-2,-2.613517E-2,-1.9491E-2,-1.3659092E-2,-7.765129E-3,-2.0187781E-3,3.7338566E-3,8.468154E-3,1.4065805E-2,1.9279521E-2,2.4473192E-2,2.9948717E-2,3.631778E-2],"categories":[],"categories_nodes":[],"categories_segments":[],"categories_sizes":[],"default_left":[0,0,0,0,0,0,0,0,0,0,0,0,0,0,0,0,0,0,0,0,0,0,0,0,0,0,0,0,0,0,0,0,0,0,0,0,0,0,0,0,0,0,0,0,0,0,0,0,0,0,0],"id":7,"left_children":[1,3,5,7,9,11,13,15,17,19,21,23,25,27,29,-1,-1,31,33,35,37,39,41,43,45,47,49,-1,-1,-1,-1,-1,-1,-1,-1,-1,-1,-1,-1,-1,-1,-1,-1,-1,-1,-1,-1,-1,-1,-1,-1],"loss_changes":[4.7904135E2,8.1615845E1,7.806314E1,2.1809387E1,1.198851E1,1.1462969E1,9.939301E0,3.0225525E0,2.8690796E0,1.410553E0,1.8559399E0,1.2825303E0,1.3411484E0,1.50457E0,8.6912537E-1,0E0,0E0,5.820465E-2,9.212494E-2,1.250763E-1,3.135109E-2,2.1742249E-1,1.8118048E-1,2.0322022E-1,1.4704466E-1,8.874035E-2,1.2859535E-1,0E0,0E0,0E0,0E0,0E0,0E0,0E0,0E0,0E0,0E0,0E0,0E0,0E0,0E0,0E0,0E0,0E0,0E0,0E0,0E0,0E0,0E0,0E0,0E0],"parents":[2147483647,0,0,1,1,2,2,3,3,4,4,5,5,6,6,7,7,8,8,9,9,10,10,11,11,12,12,13,13,14,14,17,17,18,18,19,19,20,20,21,21,22,22,23,23,24,24,25,25,26,26],"right_children":[2,4,6,8,10,12,14,16,18,20,22,24,26,28,30,-1,-1,32,34,36,38,40,42,44,46,48,50,-1,-1,-1,-1,-1,-1,-1,-1,-1,-1,-1,-1,-1,-1,-1,-1,-1,-1,-1,-1,-1,-1,-1,-1],"split_conditions":[-4.6184024E-1,-8.646948E-1,4.9596572E-1,-1.0006123E0,-7.060676E-1,-1.0533116E-1,1.5528345E0,-1.23775E0,-9.3867207E-1,-7.857711E-1,-5.972825E-1,-3.010201E-1,1.2893023E-1,9.2171276E-1,2.4514904E0,-1.9041479E-1,-1.2085356E-1,-9.6143055E-1,-8.89427E-1,-8.344435E-1,-7.430441E-1,-6.5038973E-1,-5.3006697E-1,-3.7420544E-1,-2.0323654E-1,1.3261536E-2,3.0092254E-1,4.4588238E-2,5.7618428E-2,7.0182584E-2,8.484384E-2,-9.285461E-2,-7.7056356E-2,-6.755834E-2,-5.752427E-2,-5.219088E-2,-4.386629E-2,-3.7121214E-2,-3.137898E-2,-2.613517E-2,-1.9491E-2,-1.3659092E-2,-7.765129E-3,-2.0187781E-3,3.7338566E-3,8.468154E-3,1.4065805E-2,1.9279521E-2,2.4473192E-2,2.9948717E-2,3.631778E-2],"split_indices":[2,2,2,2,2,2,2,3,2,2,2,2,2,2,2,0,0,2,2,2,2,2,2,2,2,2,2,0,0,0,0,0,0,0,0,0,0,0,0,0,0,0,0,0,0,0,0,0,0,0,0],"split_type":[0,0,0,0,0,0,0,0,0,0,0,0,0,0,0,0,0,0,0,0,0,0,0,0,0,0,0,0,0,0,0,0,0,0,0,0,0,0,0,0,0,0,0,0,0,0,0,0,0,0,0],"sum_hessian":[2.865E3,1.275E3,1.59E3,4.03E2,8.72E2,8.84E2,7.06E2,6.8E1,3.35E2,3.92E2,4.8E2,4.48E2,4.36E2,4.14E2,2.92E2,1.1E1,5.7E1,1.23E2,2.12E2,2.13E2,1.79E2,2.57E2,2.23E2,2.46E2,2.02E2,2.01E2,2.35E2,2.12E2,2.02E2,1.9E2,1.02E2,5.6E1,6.7E1,1.34E2,7.8E1,7.8E1,1.35E2,8.9E1,9E1,1.56E2,1.01E2,1.23E2,1E2,1.35E2,1.11E2,1.01E2,1.01E2,1E2,1.01E2,1.12E2,1.23E2],"tree_param":{"num_deleted":"0","num_feature":"4","num_nodes":"51","size_leaf_vector":"1"}},{"base_weights":[-8.9557806E-4,-3.930587E-1,3.4517673E-1,-7.216709E-1,-2.2794715E-1,1.7818095E-1,5.6859016E-1,-1.1433018E0,-6.1278486E-1,-3.3634537E-1,-1.2447329E-1,7.6706275E-2,2.7924788E-1,4.841323E-1,6.937398E-1,-1.7056924E-1,-1.0362844E0,-6.9574255E-1,-5.3617425E-2,-3.8976458E-1,-2.7226973E-1,-1.8315627E-1,-7.3570274E-2,3.37883E-2,1.3180593E-1,2.322593E-1,3.32763E-2,4.302789E-2,5.451692E-2,6.509353E-2,7.80296E-2,-1.16817236E-1,-9.162741E-2,-7.4218415E-2,-6.34799E-2,-4.1384365E-2,-3.468491E-2,-2.9257884E-2,-2.4949042E-2,-2.122227E-2,-1.605826E-2,-9.780305E-3,-3.7925292E-3,6.804709E-4,5.5761645E-3,1.0620021E-2,1.5310699E-2,2.0065298E-2,2.5402386E-2],"categories":[],"categories_nodes":[],"categories_segments":[],"categories_sizes":[],"default_left":[0,0,0,0,0,0,0,0,0,0,0,0,0,0,0,0,0,0,0,0,0,0,0,0,0,0,0,0,0,0,0,0,0,0,0,0,0,0,0,0,0,0,0,0,0,0,0,0,0],"id":8,"left_children":[1,3,5,7,9,11,13,15,17,19,21,23,25,27,29,-1,31,33,-1,35,37,39,41,43,45,47,-1,-1,-1,-1,-1,-1,-1,-1,-1,-1,-1,-1,-1,-1,-1,-1,-1,-1,-1,-1,-1,-1,-1],"loss_changes":[3.891E2,7.27578E1,5.672046E1,1.9912857E1,1.00080185E1,8.931833E0,6.5451202E0,3.7093048E0,1.9085693E0,1.3896713E0,1.360609E0,1.028949E0,1.021595E0,1.0539398E0,4.5537567E-1,0E0,1.8003845E-1,7.1868896E-3,0E0,1.0033417E-1,2.0454407E-2,1.0567808E-1,2.1050763E-1,1.4607173E-1,8.791685E-2,1.1137295E-1,0E0,0E0,0E0,0E0,0E0,0E0,0E0,0E0,0E0,0E0,0E0,0E0,0E0,0E0,0E0,0E0,0E0,0E0,0E0,0E0,0E0,0E0,0E0],"parents":[2147483647,0,0,1,1,2,2,3,3,4,4,5,5,6,6,7,7,8,8,9,9,10,10,11,11,12,12,13,13,14,14,16,16,17,17,19,19,20,20,21,21,22,22,23,23,24,24,25,25],"right_children":[2,4,6,8,10,12,14,16,18,20,22,24,26,28,30,-1,32,34,-1,36,38,40,42,44,46,48,-1,-1,-1,-1,-1,-1,-1,-1,-1,-1,-1,-1,-1,-1,-1,-1,-1,-1,-1,-1,-1,-1,-1],"split_conditions":[-4.1757816E-1,-8.483082E-1,5.9279895E-1,-9.8241025E-1,-6.788744E-1,-3.9090306E-2,1.65102E0,-1.0505518E0,-9.152679E-1,-7.5565386E-1,-5.678597E-1,-2.406516E-1,2.6434812E-1,1.0723112E0,2.6160629E0,-1.7056924E-1,-1.0170597E0,-9.417301E-1,-5.3617425E-2,-7.928374E-1,-7.0938146E-1,-6.4152026E-1,-4.8628005E-1,-3.394951E-1,-1.5590423E-1,7.934401E-2,3.32763E-2,4.302789E-2,5.451692E-2,6.509353E-2,7.80296E-2,-1.16817236E-1,-9.162741E-2,-7.4218415E-2,-6.34799E-2,-4.1384365E-2,-3.468491E-2,-2.9257884E-2,-2.4949042E-2,-2.122227E-2,-1.605826E-2,-9.780305E-3,-3.7925292E-3,6.804709E-4,5.5761645E-3,1.0620021E-2,1.5310699E-2,2.0065298E-2,2.5402386E-2],"split_indices":[2,2,2,2,2,2,2,2,2,2,2,2,2,2,2,0,2,2,0,2,2,2,2,2,2,2,0,0,0,0,0,0,0,0,0,0,0,0,0,0,0,0,0,0,0,0,0,0,0],"split_type":[0,0,0,0,0,0,0,0,0,0,0,0,0,0,0,0,0,0,0,0,0,0,0,0,0,0,0,0,0,0,0,0,0,0,0,0,0,0,0,0,0,0,0,0,0,0,0,0,0],"sum_hessian":[2.865E3,1.343E3,1.522E3,4.48E2,8.95E2,8.72E2,6.5E2,9E1,3.58E2,4.36E2,4.59E2,4.36E2,4.36E2,3.91E2,2.59E2,1.2E1,7.8E1,1.68E2,1.9E2,2.35E2,2.01E2,2.12E2,2.47E2,2.46E2,1.9E2,2.35E2,2.01E2,2.12E2,1.79E2,1.79E2,8E1,3.3E1,4.5E1,8.9E1,7.9E1,1.45E2,9E1,1E2,1.01E2,8.9E1,1.23E2,1.46E2,1.01E2,1.11E2,1.35E2,8.9E1,1.01E2,1E2,1.35E2],"tree_param":{"num_deleted":"0","num_feature":"4","num_nodes":"49","size_leaf_vector":"1"}},{"base_weights":[-9.45508E-4,-3.5730442E-1,3.0828643E-1,-6.628443E-1,-2.1340443E-1,1.5332893E-1,5.060091E-1,-1.0069447E0,-5.5281025E-1,-3.169492E-1,-1.21447034E-1,6.190988E-2,2.4209593E-1,4.275392E-1,6.2112284E-1,-1.3840687E-1,-8.796292E-2,-6.0394954E-2,-4.7636267E-2,-3.7184012E-1,-2.6578933E-1,-1.7419517E-1,-7.0556305E-2,2.1322079E-2,1.0681258E-1,1.8972677E-1,2.8161177E-1,3.7927133E-1,4.8549887E-2,5.7552446E-2,6.899094E-2,-4.071894E-2,-3.4603544E-2,-2.9527277E-2,-2.4416488E-2,-1.9702984E-2,-1.4759612E-2,-9.219864E-3,-3.8358488E-3,-1.0595602E-4,3.9560827E-3,8.056434E-3,1.2677302E-2,1.6477035E-2,2.0585878E-2,2.5396252E-2,3.0698998E-2,3.4779403E-2,4.021053E-2],"categories":[],"categories_nodes":[],"categories_segments":[],"categories_sizes":[],"default_left":[0,0,0,0,0,0,0,0,0,0,0,0,0,0,0,0,0,0,0,0,0,0,0,0,0,0,0,0,0,0,0,0,0,0,0,0,0,0,0,0,0,0,0,0,0,0,0,0,0],"id":9,"left_children":[1,3,5,7,9,11,13,15,17,19,21,23,25,27,29,-1,-1,-1,-1,31,33,35,37,39,41,43,45,47,-1,-1,-1,-1,-1,-1,-1,-1,-1,-1,-1,-1,-1,-1,-1,-1,-1,-1,-1,-1,-1],"loss_changes":[3.1593634E2,5.842282E1,4.6952682E1,1.5572891E1,8.597698E0,6.980137E0,5.822647E0,3.6799393E0,9.8287964E-1,1.0974693E0,1.2815862E0,7.741084E-1,8.5090446E-1,9.460907E-1,4.5295715E-1,0E0,0E0,0E0,0E0,4.426956E-2,7.071972E-2,1.1426115E-1,1.6858184E-1,9.188988E-2,9.561968E-2,4.297638E-2,9.535217E-2,2.186966E-2,0E0,0E0,0E0,0E0,0E0,0E0,0E0,0E0,0E0,0E0,0E0,0E0,0E0,0E0,0E0,0E0,0E0,0E0,0E0,0E0,0E0],"parents":[2147483647,0,0,1,1,2,2,3,3,4,4,5,5,6,6,7,7,8,8,9,9,10,10,11,11,12,12,13,13,14,14,19,19,20,20,21,21,22,22,23,23,24,24,25,25,26,26,27,27],"right_children":[2,4,6,8,10,12,14,16,18,20,22,24,26,28,30,-1,-1,-1,-1,32,34,36,38,40,42,44,46,48,-1,-1,-1,-1,-1,-1,-1,-1,-1,-1,-1,-1,-1,-1,-1,-1,-1,-1,-1,-1,-1],"split_conditions":[-4.2525366E-1,-8.5770154E-1,5.5425084E-1,-9.734921E-1,-6.9035107E-1,-6.46997E-2,1.6261538E0,-1.0387948E0,-9.016591E-1,-7.795941E-1,-5.721117E-1,-2.7578837E-1,1.5818244E-1,1.0437899E0,2.4514904E0,-1.3840687E-1,-8.796292E-2,-6.0394954E-2,-4.7636267E-2,-8.268046E-1,-7.369402E-1,-6.4152026E-1,-4.9787858E-1,-3.565274E-1,-1.8632604E-1,2.5018467E-2,3.567466E-1,7.512312E-1,4.8549887E-2,5.7552446E-2,6.899094E-2,-4.071894E-2,-3.4603544E-2,-2.9527277E-2,-2.4416488E-2,-1.9702984E-2,-1.4759612E-2,-9.219864E-3,-3.8358488E-3,-1.0595602E-4,3.9560827E-3,8.056434E-3,1.2677302E-2,1.6477035E-2,2.0585878E-2,2.5396252E-2,3.0698998E-2,3.4779403E-2,4.021053E-2],"split_indices":[2,2,2,2,2,2,2,2,2,2,2,2,2,2,2,0,0,0,0,2,2,2,2,2,2,2,2,2,0,0,0,0,0,0,0,0,0,0,0,0,0,0,0,0,0,0,0,0,0],"split_type":[0,0,0,0,0,0,0,0,0,0,0,0,0,0,0,0,0,0,0,0,0,0,0,0,0,0,0,0,0,0,0,0,0,0,0,0,0,0,0,0,0,0,0,0,0,0,0,0,0],"sum_hessian":[2.865E3,1.331E3,1.534E3,4.25E2,9.06E2,8.61E2,6.73E2,1.01E2,3.24E2,4.25E2,4.81E2,4.25E2,4.36E2,4.03E2,2.7E2,2.3E1,7.8E1,1.9E2,1.34E2,2.02E2,2.23E2,2.35E2,2.46E2,2.24E2,2.01E2,1.9E2,2.46E2,2.24E2,1.79E2,1.68E2,1.02E2,7.9E1,1.23E2,8.9E1,1.34E2,1.23E2,1.12E2,1.46E2,1E2,1.01E2,1.23E2,8.9E1,1.12E2,7.9E1,1.11E2,1.23E2,1.23E2,1.01E2,1.23E2],"tree_param":{"num_deleted":"0","num_feature":"4","num_nodes":"49","size_leaf_vector":"1"}},{"base_weights":[-9.0102246E-4,-3.4011427E-1,2.628152E-1,-6.3942313E-1,-2.248997E-1,1.05354E-1,4.3336383E-1,-1.1059024E0,-5.6649417E-1,-3.322305E-1,-1.4687705E-1,2.982871E-2,1.8678765E-1,3.3068952E-1,5.20928E-1,-1.450852E-1,-9.560368E-2,-7.104421E-2,-5.1255524E-1,-3.8483586E-2,-2.8893223E-1,-1.9442126E-1,-9.655219E-2,-2.871884E-3,7.196075E-2,1.5255135E-1,2.2854535E-2,2.9336391E-2,3.6617797E-2,4.682653E-2,5.9437954E-1,-5.4260343E-2,-4.7058955E-2,-3.0717213E-2,-2.6059136E-2,-2.1788282E-2,-1.7330797E-2,-1.2321613E-2,-7.525372E-3,-2.3362439E-3,1.7641829E-3,5.498381E-3,9.040171E-3,1.3083785E-2,1.7291484E-2,5.616324E-2,6.6813E-2],"categories":[],"categories_nodes":[],"categories_segments":[],"categories_sizes":[],"default_left":[0,0,0,0,0,0,0,0,0,0,0,0,0,0,0,0,0,0,0,0,0,0,0,0,0,0,0,0,0,0,0,0,0,0,0,0,0,0,0,0,0,0,0,0,0,0,0],"id":10,"left_children":[1,3,5,7,9,11,13,15,17,19,21,23,25,27,29,-1,-1,-1,31,-1,33,35,37,39,41,43,-1,-1,-1,-1,45,-1,-1,-1,-1,-1,-1,-1,-1,-1,-1,-1,-1,-1,-1,-1,-1],"loss_changes":[2.564704E2,4.310005E1,4.327112E1,1.1212418E1,7.546631E0,5.160681E0,6.7864532E0,9.9095154E-1,1.9884796E0,7.566223E-1,1.2421589E0,6.0228014E-1,5.427046E-1,3.681183E-1,1.3308182E0,0E0,0E0,0E0,2.7118683E-2,0E0,3.0059814E-2,9.5983505E-2,1.372459E-1,1.0423547E-1,5.482602E-2,7.686281E-2,0E0,0E0,0E0,0E0,3.532791E-2,0E0,0E0,0E0,0E0,0E0,0E0,0E0,0E0,0E0,0E0,0E0,0E0,0E0,0E0,0E0,0E0],"parents":[2147483647,0,0,1,1,2,2,3,3,4,4,5,5,6,6,7,7,8,8,9,9,10,10,11,11,12,12,13,13,14,14,18,18,20,20,21,21,22,22,23,23,24,24,25,25,30,30],"right_children":[2,4,6,8,10,12,14,16,18,20,22,24,26,28,30,-1,-1,-1,32,-1,34,36,38,40,42,44,-1,-1,-1,-1,46,-1,-1,-1,-1,-1,-1,-1,-1,-1,-1,-1,-1,-1,-1,-1,-1],"split_conditions":[-4.806757E-1,-8.832744E-1,3.9665928E-1,-1.0170597E0,-7.3226184E-1,-1.4423259E-1,1.1420974E0,-1.23775E0,-9.6143055E-1,-8.219434E-1,-6.257672E-1,-3.134471E-1,1.17234215E-1,7.062381E-1,2.0387185E0,-1.450852E-1,-9.560368E-2,-7.104421E-2,-9.183015E-1,-3.8483586E-2,-7.755736E-1,-6.9035107E-1,-5.6277925E-1,-4.004971E-1,-2.2377765E-1,-6.2318183E-3,2.2854535E-2,2.9336391E-2,3.6617797E-2,4.682653E-2,2.8915527E0,-5.4260343E-2,-4.7058955E-2,-3.0717213E-2,-2.6059136E-2,-2.1788282E-2,-1.7330797E-2,-1.2321613E-2,-7.525372E-3,-2.3362439E-3,1.7641829E-3,5.498381E-3,9.040171E-3,1.3083785E-2,1.7291484E-2,5.616324E-2,6.6813E-2],"split_indices":[2,2,2,2,2,2,2,3,2,2,2,2,2,2,2,0,0,0,2,0,2,2,2,2,2,2,0,0,0,0,2,0,0,0,0,0,0,0,0,0,0,0,0,0,0,0,0],"split_type":[0,0,0,0,0,0,0,0,0,0,0,0,0,0,0,0,0,0,0,0,0,0,0,0,0,0,0,0,0,0,0,0,0,0,0,0,0,0,0,0,0,0,0,0,0,0,0],"sum_hessian":[2.865E3,1.253E3,1.612E3,3.47E2,9.06E2,8.39E2,7.73E2,4.5E1,3.02E2,3.8E2,5.26E2,4.36E2,4.03E2,3.58E2,4.15E2,1.1E1,3.4E1,7.9E1,2.23E2,1.68E2,2.12E2,2.69E2,2.57E2,2.46E2,1.9E2,2.24E2,1.79E2,1.79E2,1.79E2,2.46E2,1.69E2,1.23E2,1E2,1.23E2,8.9E1,1.23E2,1.46E2,1.12E2,1.45E2,1.23E2,1.23E2,1.01E2,8.9E1,1.12E2,1.12E2,1.23E2,4.6E1],"tree_param":{"num_deleted":"0","num_feature":"4","num_nodes":"47","size_leaf_vector":"1"}},{"base_weights":[-9.03162E-4,-2.9473972E-1,2.4632023E-1,-5.48921E-1,-1.8119621E-1,1.1886983E-1,4.083901E-1,-1.0005448E0,-4.8952377E-1,-2.68063E-1,-1.077055E-1,4.2755563E-2,1.9098103E-1,3.5039198E-1,5.1654524E-1,-1.3178574E-1,-8.631649E-2,-6.090738E-1,-4.3284893E-1,-3.1152314E-1,-2.257873E-1,-1.485117E-1,-6.263897E-2,1.0273378E-2,7.872455E-2,1.5068717E-1,2.2653869E-1,3.0126063E-2,3.934586E-2,4.8903957E-2,5.930018E-2,-6.5447174E-2,-5.2872308E-2,-4.5588497E-2,-3.7809025E-2,-3.424237E-2,-2.8932422E-2,-2.4741575E-2,-2.0426614E-2,-1.7078554E-2,-1.2695267E-2,-8.515506E-3,-4.161513E-3,-8.717626E-4,2.5812162E-3,6.026206E-3,9.623423E-3,1.31648695E-2,1.6668038E-2,2.0156397E-2,2.4373043E-2],"categories":[],"categories_nodes":[],"categories_segments":[],"categories_sizes":[],"default_left":[0,0,0,0,0,0,0,0,0,0,0,0,0,0,0,0,0,0,0,0,0,0,0,0,0,0,0,0,0,0,0,0,0,0,0,0,0,0,0,0,0,0,0,0,0,0,0,0,0,0,0],"id":11,"left_children":[1,3,5,7,9,11,13,15,17,19,21,23,25,27,29,-1,-1,31,33,35,37,39,41,43,45,47,49,-1,-1,-1,-1,-1,-1,-1,-1,-1,-1,-1,-1,-1,-1,-1,-1,-1,-1,-1,-1,-1,-1,-1,-1],"loss_changes":[2.0826823E2,3.7707962E1,3.211264E1,1.0347603E1,5.7613277E0,4.7834606E0,4.115883E0,8.677254E-1,2.1687546E0,6.921463E-1,8.973212E-1,4.9690884E-1,6.077366E-1,8.3151245E-1,2.0840836E-1,0E0,0E0,6.6158295E-2,1.3921356E-1,3.9491653E-2,4.9072266E-2,1.0221052E-1,1.08172715E-1,6.662186E-2,5.9501648E-2,4.2912483E-2,5.220127E-2,0E0,0E0,0E0,0E0,0E0,0E0,0E0,0E0,0E0,0E0,0E0,0E0,0E0,0E0,0E0,0E0,0E0,0E0,0E0,0E0,0E0,0E0,0E0,0E0],"parents":[2147483647,0,0,1,1,2,2,3,3,4,4,5,5,6,6,7,7,8,8,9,9,10,10,11,11,12,12,13,13,14,14,17,17,18,18,19,19,20,20,21,21,22,22,23,23,24,24,25,25,26,26],"right_children":[2,4,6,8,10,12,14,16,18,20,22,24,26,28,30,-1,-1,32,34,36,38,40,42,44,46,48,50,-1,-1,-1,-1,-1,-1,-1,-1,-1,-1,-1,-1,-1,-1,-1,-1,-1,-1,-1,-1,-1,-1,-1,-1],"split_conditions":[-4.434312E-1,-8.646948E-1,5.314802E-1,-1.0170597E0,-7.0163286E-1,-8.5326105E-2,1.7260085E0,-1.23775E0,-9.4918627E-1,-7.88756E-1,-5.844169E-1,-2.9439232E-1,1.5818244E-1,9.850418E-1,2.783779E0,-1.3178574E-1,-8.631649E-2,-9.674004E-1,-8.89427E-1,-8.344435E-1,-7.430441E-1,-6.5673727E-1,-5.20832E-1,-3.7420544E-1,-1.9345331E-1,2.5018467E-2,3.1639537E-1,3.0126063E-2,3.934586E-2,4.8903957E-2,5.930018E-2,-6.5447174E-2,-5.2872308E-2,-4.5588497E-2,-3.7809025E-2,-3.424237E-2,-2.8932422E-2,-2.4741575E-2,-2.0426614E-2,-1.7078554E-2,-1.2695267E-2,-8.515506E-3,-4.161513E-3,-8.717626E-4,2.5812162E-3,6.026206E-3,9.623423E-3,1.31648695E-2,1.6668038E-2,2.0156397E-2,2.4373043E-2],"split_indices":[2,2,2,2,2,2,2,3,2,2,2,2,2,2,2,0,0,2,2,2,2,2,2,2,2,2,2,0,0,0,0,0,0,0,0,0,0,0,0,0,0,0,0,0,0,0,0,0,0,0,0],"split_type":[0,0,0,0,0,0,0,0,0,0,0,0,0,0,0,0,0,0,0,0,0,0,0,0,0,0,0,0,0,0,0,0,0,0,0,0,0,0,0,0,0,0,0,0,0,0,0,0,0,0,0],"sum_hessian":[2.865E3,1.309E3,1.556E3,4.03E2,9.06E2,8.72E2,6.84E2,4.5E1,3.58E2,4.14E2,4.92E2,4.25E2,4.47E2,4.48E2,2.36E2,1.1E1,3.4E1,1.12E2,2.46E2,2.01E2,2.13E2,2.57E2,2.35E2,2.24E2,2.01E2,2.12E2,2.35E2,2.13E2,2.35E2,1.79E2,5.7E1,6.7E1,4.5E1,1.68E2,7.8E1,7.8E1,1.23E2,1.01E2,1.12E2,1.23E2,1.34E2,1.12E2,1.23E2,1.01E2,1.23E2,1E2,1.01E2,1.01E2,1.11E2,1.01E2,1.34E2],"tree_param":{"num_deleted":"0","num_feature":"4","num_nodes":"51","size_leaf_vector":"1"}},{"base_weights":[-9.179448E-4,-2.7427083E-1,2.1493244E-1,-5.2573204E-1,-1.8275663E-1,9.564528E-2,3.6166534E-1,-9.052316E-1,-4.6414742E-1,-2.6563233E-1,-1.1234432E-1,2.728235E-2,1.6196813E-1,2.933805E-1,4.4241756E-1,-1.19705394E-1,-7.793145E-2,-5.775429E-2,-4.193785E-1,-3.0777237E-1,-2.2244795E-1,-1.4645895E-1,-6.90472E-2,-2.3369303E-3,5.8442235E-2,1.271873E-1,1.960291E-1,2.5699833E-2,3.3032198E-2,4.051659E-2,4.9862728E-2,-4.6198677E-2,-3.966611E-2,-3.2640122E-2,-2.720424E-2,-2.3608323E-2,-1.9615876E-2,-1.6101694E-2,-1.1933249E-2,-8.335971E-3,-4.681123E-3,-2.113772E-3,1.0353506E-3,4.3178806E-3,7.494051E-3,1.0812695E-2,1.4184027E-2,1.7274683E-2,2.1027101E-2],"categories":[],"categories_nodes":[],"categories_segments":[],"categories_sizes":[],"default_left":[0,0,0,0,0,0,0,0,0,0,0,0,0,0,0,0,0,0,0,0,0,0,0,0,0,0,0,0,0,0,0,0,0,0,0,0,0,0,0,0,0,0,0,0,0,0,0,0,0],"id":12,"left_children":[1,3,5,7,9,11,13,15,17,19,21,23,25,27,29,-1,-1,-1,31,33,35,37,39,41,43,45,47,-1,-1,-1,-1,-1,-1,-1,-1,-1,-1,-1,-1,-1,-1,-1,-1,-1,-1,-1,-1,-1,-1],"loss_changes":[1.6916249E2,2.9014442E1,2.8005775E1,7.4559784E0,5.3913097E0,4.008192E0,3.8293686E0,7.5740814E-1,1.2401619E0,7.0676804E-1,7.3432827E-1,4.034585E-1,5.069847E-1,4.4195938E-1,4.8267365E-1,0E0,0E0,0E0,2.2918701E-2,5.297661E-2,3.040123E-2,9.175396E-2,6.738639E-2,5.3901643E-2,5.0401866E-2,4.750347E-2,3.8282394E-2,0E0,0E0,0E0,0E0,0E0,0E0,0E0,0E0,0E0,0E0,0E0,0E0,0E0,0E0,0E0,0E0,0E0,0E0,0E0,0E0,0E0,0E0],"parents":[2147483647,0,0,1,1,2,2,3,3,4,4,5,5,6,6,7,7,8,8,9,9,10,10,11,11,12,12,13,13,14,14,18,18,19,19,20,20,21,21,22,22,23,23,24,24,25,25,26,26],"right_children":[2,4,6,8,10,12,14,16,18,20,22,24,26,28,30,-1,-1,-1,32,34,36,38,40,42,44,46,48,-1,-1,-1,-1,-1,-1,-1,-1,-1,-1,-1,-1,-1,-1,-1,-1,-1,-1,-1,-1,-1,-1],"split_conditions":[-4.7391394E-1,-8.8660043E-1,4.7619215E-1,-1.0170597E0,-7.194693E-1,-1.3184212E-1,1.4322315E0,-1.23775E0,-9.6143055E-1,-8.0572736E-1,-6.040321E-1,-3.2059872E-1,1.2893023E-1,8.6160016E-1,2.3021102E0,-1.19705394E-1,-7.793145E-2,-5.775429E-2,-9.3867207E-1,-8.382569E-1,-7.5565386E-1,-6.5673727E-1,-5.3006697E-1,-4.1099915E-1,-2.2377765E-1,-6.2318183E-3,2.6434812E-1,2.5699833E-2,3.3032198E-2,4.051659E-2,4.9862728E-2,-4.6198677E-2,-3.966611E-2,-3.2640122E-2,-2.720424E-2,-2.3608323E-2,-1.9615876E-2,-1.6101694E-2,-1.1933249E-2,-8.335971E-3,-4.681123E-3,-2.113772E-3,1.0353506E-3,4.3178806E-3,7.494051E-3,1.0812695E-2,1.4184027E-2,1.7274683E-2,2.1027101E-2],"split_indices":[2,2,2,2,2,2,2,3,2,2,2,2,2,2,2,0,0,0,2,2,2,2,2,2,2,2,2,0,0,0,0,0,0,0,0,0,0,0,0,0,0,0,0,0,0,0,0,0,0],"split_type":[0,0,0,0,0,0,0,0,0,0,0,0,0,0,0,0,0,0,0,0,0,0,0,0,0,0,0,0,0,0,0,0,0,0,0,0,0,0,0,0,0,0,0,0,0,0,0,0,0],"sum_hessian":[2.865E3,1.264E3,1.601E3,3.36E2,9.28E2,8.84E2,7.17E2,4.5E1,2.91E2,4.25E2,5.03E2,4.36E2,4.48E2,3.91E2,3.26E2,1.1E1,3.4E1,7.9E1,2.12E2,2.12E2,2.13E2,2.8E2,2.23E2,2.24E2,2.12E2,2.24E2,2.24E2,2.01E2,1.9E2,2.01E2,1.25E2,6.7E1,1.45E2,1.34E2,7.8E1,1.35E2,7.8E1,1.79E2,1.01E2,1.34E2,8.9E1,9E1,1.34E2,1.12E2,1E2,1.01E2,1.23E2,9E1,1.34E2],"tree_param":{"num_deleted":"0","num_feature":"4","num_nodes":"49","size_leaf_vector":"1"}},{"base_weights":[-9.1762375E-4,-2.4916635E-1,1.920798E-1,-4.5965555E-1,-1.605457E-1,7.537855E-2,3.1507757E-1,-8.789433E-1,-4.147454E-1,-2.3093952E-1,-1.0135639E-1,1.8931754E-2,1.3164371E-1,2.455091E-1,3.8745618E-1,-1.07544795E-1,-7.296606E-2,-5.4633882E-2,-3.730055E-1,-2.69963E-1,-1.9886778E-1,-1.3484685E-1,-6.8947054E-2,-7.448454E-3,4.374423E-2,1.02025114E-1,1.5898629E-1,2.1827134E-1,2.823103E-2,3.386144E-2,4.286526E-1,-4.0961422E-2,-3.4232672E-2,-2.866727E-2,-2.4518272E-2,-2.1428572E-2,-1.778172E-2,-1.4843349E-2,-1.1874428E-2,-8.408773E-3,-5.024848E-3,-1.9817452E-3,5.1167555E-4,2.8712824E-3,5.6925286E-3,8.23497E-3,1.1117996E-2,1.4440576E-2,1.7358055E-2,2.0503452E-2,2.3710985E-2,4.0593613E-2,4.9589835E-2],"categories":[],"categories_nodes":[],"categories_segments":[],"categories_sizes":[],"default_left":[0,0,0,0,0,0,0,0,0,0,0,0,0,0,0,0,0,0,0,0,0,0,0,0,0,0,0,0,0,0,0,0,0,0,0,0,0,0,0,0,0,0,0,0,0,0,0,0,0,0,0,0,0],"id":13,"left_children":[1,3,5,7,9,11,13,15,17,19,21,23,25,27,29,-1,-1,-1,31,33,35,37,39,41,43,45,47,49,-1,-1,51,-1,-1,-1,-1,-1,-1,-1,-1,-1,-1,-1,-1,-1,-1,-1,-1,-1,-1,-1,-1,-1,-1],"loss_changes":[1.3736183E2,2.3317932E1,2.3129246E1,6.621498E0,3.6598358E0,2.630402E0,3.8575592E0,2.420044E-1,1.6472473E0,4.506874E-1,5.138669E-1,2.7196753E-1,3.1986618E-1,3.4234238E-1,6.2548447E-1,0E0,0E0,0E0,1.5066528E-1,3.8309097E-3,3.4921646E-2,3.4006596E-2,6.570268E-2,3.1496048E-2,4.0765285E-2,2.7229786E-2,2.0471573E-2,1.0233879E-2,0E0,0E0,1.1032486E-1,0E0,0E0,0E0,0E0,0E0,0E0,0E0,0E0,0E0,0E0,0E0,0E0,0E0,0E0,0E0,0E0,0E0,0E0,0E0,0E0,0E0,0E0],"parents":[2147483647,0,0,1,1,2,2,3,3,4,4,5,5,6,6,7,7,8,8,9,9,10,10,11,11,12,12,13,13,14,14,18,18,19,19,20,20,21,21,22,22,23,23,24,24,25,25,26,26,27,27,30,30],"right_children":[2,4,6,8,10,12,14,16,18,20,22,24,26,28,30,-1,-1,-1,32,34,36,38,40,42,44,46,48,50,-1,-1,52,-1,-1,-1,-1,-1,-1,-1,-1,-1,-1,-1,-1,-1,-1,-1,-1,-1,-1,-1,-1,-1,-1],"split_conditions":[-4.806757E-1,-8.7656134E-1,3.7424192E-1,-1.0290481E0,-7.139137E-1,-1.690866E-1,1.2598494E0,-1.0505518E0,-9.674004E-1,-8.0572736E-1,-6.20041E-1,-3.394951E-1,6.155632E-2,7.984295E-1,1.8806883E0,-1.07544795E-1,-7.296606E-2,-5.4633882E-2,-9.249414E-1,-8.382569E-1,-7.605272E-1,-6.7521936E-1,-5.4780596E-1,-4.1099915E-1,-2.7578837E-1,-8.5326105E-2,2.1215467E-1,6.079429E-1,2.823103E-2,3.386144E-2,2.8915527E0,-4.0961422E-2,-3.4232672E-2,-2.866727E-2,-2.4518272E-2,-2.1428572E-2,-1.778172E-2,-1.4843349E-2,-1.1874428E-2,-8.408773E-3,-5.024848E-3,-1.9817452E-3,5.1167555E-4,2.8712824E-3,5.6925286E-3,8.23497E-3,1.1117996E-2,1.4440576E-2,1.7358055E-2,2.0503452E-2,2.3710985E-2,4.0593613E-2,4.9589835E-2],"split_indices":[2,2,2,2,2,2,2,2,2,2,2,2,2,2,2,0,0,0,2,2,2,2,2,2,2,2,2,2,0,0,2,0,0,0,0,0,0,0,0,0,0,0,0,0,0,0,0,0,0,0,0,0,0],"split_type":[0,0,0,0,0,0,0,0,0,0,0,0,0,0,0,0,0,0,0,0,0,0,0,0,0,0,0,0,0,0,0,0,0,0,0,0,0,0,0,0,0,0,0,0,0,0,0,0,0,0,0,0,0],"sum_hessian":[2.865E3,1.253E3,1.612E3,3.7E2,8.83E2,8.28E2,7.84E2,3.4E1,3.36E2,4.02E2,4.81E2,4.14E2,4.14E2,4.02E2,3.82E2,1.2E1,2.2E1,7.8E1,2.58E2,1.78E2,2.24E2,2.35E2,2.46E2,2.01E2,2.13E2,2.01E2,2.13E2,2.35E2,1.67E2,1.79E2,2.03E2,1.12E2,1.46E2,1E2,7.8E1,1.24E2,1E2,1.23E2,1.12E2,1.34E2,1.12E2,1.01E2,1E2,1.01E2,1.12E2,6.7E1,1.34E2,1.12E2,1.01E2,1.45E2,9E1,1.57E2,4.6E1],"tree_param":{"num_deleted":"0","num_feature":"4","num_nodes":"53","size_leaf_vector":"1"}},{"base_weights":[-8.9153164E-4,-2.2460291E-1,1.730297E-1,-4.2794296E-1,-1.4971161E-1,7.348051E-2,2.9007885E-1,-7.9620636E-1,-3.8399193E-1,-2.242433E-1,-9.9208094E-2,2.09877E-2,1.2851171E-1,2.3817247E-1,3.6391082E-1,-9.9162257E-1,-6.653231E-2,-4.9239628E-2,-3.4422335E-1,-2.5750834E-2,-1.9530252E-1,-1.3330182E-1,-6.621728E-2,-4.2896015E-3,4.6284154E-2,1.0311981E-1,1.5615858E-1,2.0739579E-1,2.7277902E-2,3.4262308E-1,4.301781E-2,-2.910626E-2,-1.0288496E-1,-3.8093884E-2,-3.217476E-2,-2.0726543E-2,-1.7811239E-2,-1.4791064E-2,-1.1770559E-2,-8.775522E-3,-5.1424354E-3,-1.4459441E-3,1.084466E-3,3.6080454E-3,6.4555756E-3,8.563849E-3,1.1413967E-2,1.4183539E-2,1.6907748E-2,1.8878888E-2,2.2267954E-2,3.0829808E-2,3.577126E-2],"categories":[],"categories_nodes":[],"categories_segments":[],"categories_sizes":[],"default_left":[0,0,0,0,0,0,0,0,0,0,0,0,0,0,0,0,0,0,0,0,0,0,0,0,0,0,0,0,0,0,0,0,0,0,0,0,0,0,0,0,0,0,0,0,0,0,0,0,0,0,0,0,0],"id":14,"left_children":[1,3,5,7,9,11,13,15,17,19,21,23,25,27,29,31,-1,-1,33,-1,35,37,39,41,43,45,47,49,-1,51,-1,-1,-1,-1,-1,-1,-1,-1,-1,-1,-1,-1,-1,-1,-1,-1,-1,-1,-1,-1,-1,-1,-1],"loss_changes":[1.11549644E2,1.9032337E1,1.8773602E1,5.148796E0,3.4332085E0,2.5191755E0,2.7531013E0,2.354374E-1,1.1367683E0,3.0591202E-1,6.086774E-1,2.866614E-1,2.8295183E-1,4.0992928E-1,2.81456E-1,1.3497353E-2,0E0,0E0,6.310463E-2,0E0,4.6229362E-3,4.3879986E-2,8.501625E-2,3.4787234E-2,3.9432883E-2,3.3569574E-2,1.339674E-2,2.5074005E-2,0E0,1.1436462E-2,0E0,0E0,0E0,0E0,0E0,0E0,0E0,0E0,0E0,0E0,0E0,0E0,0E0,0E0,0E0,0E0,0E0,0E0,0E0,0E0,0E0,0E0,0E0],"parents":[2147483647,0,0,1,1,2,2,3,3,4,4,5,5,6,6,7,7,8,8,9,9,10,10,11,11,12,12,13,13,14,14,15,15,18,18,20,20,21,21,22,22,23,23,24,24,25,25,26,26,27,27,29,29],"right_children":[2,4,6,8,10,12,14,16,18,20,22,24,26,28,30,32,-1,-1,34,-1,36,38,40,42,44,46,48,50,-1,52,-1,-1,-1,-1,-1,-1,-1,-1,-1,-1,-1,-1,-1,-1,-1,-1,-1,-1,-1,-1,-1,-1,-1],"split_conditions":[-4.806757E-1,-8.8660043E-1,4.4730544E-1,-1.0290481E0,-7.430441E-1,-1.3184212E-1,1.5214868E0,-1.23775E0,-9.674004E-1,-8.268046E-1,-6.4152026E-1,-3.2611775E-1,1.2893023E-1,8.9021885E-1,2.6893337E0,-6.6567284E-1,-6.653231E-2,-4.9239628E-2,-9.3867207E-1,-2.5750834E-2,-7.857711E-1,-6.9410354E-1,-5.721117E-1,-3.941983E-1,-2.0323654E-1,-2.1777768E-2,2.803205E-1,6.2560874E-1,2.7277902E-2,1.7776417E0,4.301781E-2,-2.910626E-2,-1.0288496E-1,-3.8093884E-2,-3.217476E-2,-2.0726543E-2,-1.7811239E-2,-1.4791064E-2,-1.1770559E-2,-8.775522E-3,-5.1424354E-3,-1.4459441E-3,1.084466E-3,3.6080454E-3,6.4555756E-3,8.563849E-3,1.1413967E-2,1.4183539E-2,1.6907748E-2,1.8878888E-2,2.2267954E-2,3.0829808E-2,3.577126E-2],"split_indices":[2,2,2,2,2,2,2,3,2,2,2,2,2,2,2,0,0,0,2,0,2,2,2,2,2,2,2,2,0,2,0,0,0,0,0,0,0,0,0,0,0,0,0,0,0,0,0,0,0,0,0,0,0],"split_type":[0,0,0,0,0,0,0,0,0,0,0,0,0,0,0,0,0,0,0,0,0,0,0,0,0,0,0,0,0,0,0,0,0,0,0,0,0,0,0,0,0,0,0,0,0,0,0,0,0,0,0,0,0],"sum_hessian":[2.865E3,1.253E3,1.612E3,3.36E2,9.17E2,8.72E2,7.4E2,3.4E1,3.02E2,3.69E2,5.48E2,4.47E2,4.25E2,4.37E2,3.03E2,1.1E1,2.3E1,7.8E1,2.24E2,1.68E2,2.01E2,2.68E2,2.8E2,2.24E2,2.23E2,2.24E2,2.01E2,2.35E2,2.02E2,2.34E2,6.9E1,1E0,1E1,7.9E1,1.45E2,1.12E2,8.9E1,1.34E2,1.34E2,1.12E2,1.68E2,1.34E2,9E1,1.45E2,7.8E1,9E1,1.34E2,1.01E2,1E2,1.12E2,1.23E2,7.8E1,1.56E2],"tree_param":{"num_deleted":"0","num_feature":"4","num_nodes":"53","size_leaf_vector":"1"}},{"base_weights":[-8.666081E-4,-1.931951E-1,1.6347156E-1,-3.636803E-1,-1.1795631E-1,8.412393E-2,2.756666E-1,-6.1058044E-1,-3.1189522E-1,-1.737061E-1,-6.7166656E-2,3.445047E-2,1.3494015E-1,2.378358E-1,3.4391493E-1,-9.034596E-2,-5.3945757E-2,-3.683328E-2,-2.7757525E-1,-2.0317155E-1,-1.4478059E-1,-9.411512E-2,-3.8677506E-2,8.937056E-3,5.8628723E-2,1.1019869E-1,1.5897192E-1,2.0858979E-2,2.6764182E-2,3.259861E-2,4.052612E-2,-2.961697E-2,-2.5443647E-2,-2.239935E-2,-1.8958254E-2,-1.60499E-2,-1.332292E-2,-1.0852632E-2,-8.135527E-3,-5.2498835E-3,-2.3168458E-3,-4.7450382E-4,1.8093601E-3,4.243784E-3,7.0221736E-3,9.453153E-3,1.19827185E-2,1.40543645E-2,1.6589692E-2],"categories":[],"categories_nodes":[],"categories_segments":[],"categories_sizes":[],"default_left":[0,0,0,0,0,0,0,0,0,0,0,0,0,0,0,0,0,0,0,0,0,0,0,0,0,0,0,0,0,0,0,0,0,0,0,0,0,0,0,0,0,0,0,0,0,0,0,0,0],"id":15,"left_children":[1,3,5,7,9,11,13,15,17,19,21,23,25,27,29,-1,-1,-1,31,33,35,37,39,41,43,45,47,-1,-1,-1,-1,-1,-1,-1,-1,-1,-1,-1,-1,-1,-1,-1,-1,-1,-1,-1,-1,-1,-1],"loss_changes":[9.0617E1,1.6901703E1,1.3739937E1,4.9749985E0,2.5876598E0,2.2848172E0,1.5706139E0,9.4992065E-1,5.485687E-1,3.4304237E-1,3.6641002E-1,2.8323615E-1,2.4885273E-1,3.059311E-1,1.164608E-1,0E0,0E0,0E0,1.6288757E-2,1.8086433E-2,1.9288063E-2,3.6590576E-2,4.937163E-2,2.8274013E-2,4.1317403E-2,2.2463083E-2,5.3982735E-3,0E0,0E0,0E0,0E0,0E0,0E0,0E0,0E0,0E0,0E0,0E0,0E0,0E0,0E0,0E0,0E0,0E0,0E0,0E0,0E0,0E0,0E0],"parents":[2147483647,0,0,1,1,2,2,3,3,4,4,5,5,6,6,7,7,8,8,9,9,10,10,11,11,12,12,13,13,14,14,18,18,19,19,20,20,21,21,22,22,23,23,24,24,25,25,26,26],"right_children":[2,4,6,8,10,12,14,16,18,20,22,24,26,28,30,-1,-1,-1,32,34,36,38,40,42,44,46,48,-1,-1,-1,-1,-1,-1,-1,-1,-1,-1,-1,-1,-1,-1,-1,-1,-1,-1,-1,-1,-1,-1],"split_conditions":[-4.31455E-1,-8.646948E-1,6.079429E-1,-1.0006123E0,-6.9410354E-1,-3.9090306E-2,1.7776417E0,-1.23775E0,-9.3867207E-1,-7.857711E-1,-5.721117E-1,-2.8646097E-1,2.3875092E-1,1.096422E0,2.8915527E0,-9.034596E-2,-5.3945757E-2,-3.683328E-2,-8.9777255E-1,-8.344435E-1,-7.430441E-1,-6.5038973E-1,-5.1095134E-1,-3.7420544E-1,-1.8632604E-1,6.155632E-2,3.567466E-1,2.0858979E-2,2.6764182E-2,3.259861E-2,4.052612E-2,-2.961697E-2,-2.5443647E-2,-2.239935E-2,-1.8958254E-2,-1.60499E-2,-1.332292E-2,-1.0852632E-2,-8.135527E-3,-5.2498835E-3,-2.3168458E-3,-4.7450382E-4,1.8093601E-3,4.243784E-3,7.0221736E-3,9.453153E-3,1.19827185E-2,1.40543645E-2,1.6589692E-2],"split_indices":[2,2,2,2,2,2,2,3,2,2,2,2,2,2,2,0,0,0,2,2,2,2,2,2,2,2,2,0,0,0,0,0,0,0,0,0,0,0,0,0,0,0,0,0,0,0,0,0,0],"split_type":[0,0,0,0,0,0,0,0,0,0,0,0,0,0,0,0,0,0,0,0,0,0,0,0,0,0,0,0,0,0,0,0,0,0,0,0,0,0,0,0,0,0,0,0,0,0,0,0,0],"sum_hessian":[2.865E3,1.32E3,1.545E3,4.03E2,9.17E2,9.06E2,6.39E2,6.8E1,3.35E2,4.36E2,4.81E2,4.59E2,4.47E2,4.14E2,2.25E2,1.1E1,5.7E1,1.23E2,2.12E2,2.13E2,2.23E2,2.46E2,2.35E2,2.24E2,2.35E2,2.23E2,2.24E2,2.13E2,2.01E2,1.79E2,4.6E1,1.11E2,1.01E2,7.8E1,1.35E2,8.9E1,1.34E2,1.12E2,1.34E2,1.23E2,1.12E2,9E1,1.34E2,1E2,1.35E2,8.9E1,1.34E2,6.7E1,1.57E2],"tree_param":{"num_deleted":"0","num_feature":"4","num_nodes":"49","size_leaf_vector":"1"}},{"base_weights":[-8.3164294E-4,-1.8395902E-1,1.3933349E-1,-3.4825343E-1,-1.2271186E-1,5.2857105E-2,2.289986E-1,-6.584136E-1,-3.11277E-1,-1.7625567E-1,-7.739057E-2,1.2943203E-2,9.491782E-2,1.734034E-1,2.794995E-1,-8.2064253E-1,-5.4986518E-2,-4.0004812E-2,-2.78725E-1,-2.0565915E-1,-1.5051204E-1,-1.0062952E-1,-5.165735E-2,-7.305287E-3,3.1064322E-2,7.340961E-2,1.1375889E-1,1.5378259E-2,1.9456796E-2,2.5142988E-2,3.2328856E-1,-2.3133649E-2,-8.531853E-2,-3.0694807E-2,-2.6135122E-2,-2.1484213E-2,-1.8030196E-2,-1.6058262E-2,-1.3391822E-2,-1.1162556E-2,-8.784651E-3,-5.899214E-3,-3.2668568E-3,-1.6267361E-3,1.8178496E-4,1.7428346E-3,4.0025874E-3,5.9901937E-3,8.022504E-3,1.022843E-2,1.23193255E-2,3.0512521E-2,3.76871E-2],"categories":[],"categories_nodes":[],"categories_segments":[],"categories_sizes":[],"default_left":[0,0,0,0,0,0,0,0,0,0,0,0,0,0,0,0,0,0,0,0,0,0,0,0,0,0,0,0,0,0,0,0,0,0,0,0,0,0,0,0,0,0,0,0,0,0,0,0,0,0,0,0,0],"id":16,"left_children":[1,3,5,7,9,11,13,15,17,19,21,23,25,27,29,31,-1,-1,33,35,37,39,41,43,45,47,49,-1,-1,-1,51,-1,-1,-1,-1,-1,-1,-1,-1,-1,-1,-1,-1,-1,-1,-1,-1,-1,-1,-1,-1,-1,-1],"loss_changes":[7.359032E1,1.24650345E1,1.2580254E1,3.6599731E0,2.187354E0,1.3888237E0,2.1891975E0,1.6509724E-1,7.640686E-1,2.831812E-1,2.8962207E-1,1.5653712E-1,1.5495992E-1,1.287098E-1,4.3003845E-1,3.275776E-2,0E0,0E0,3.010559E-2,5.7382584E-3,1.6094685E-2,2.6459217E-2,3.094256E-2,1.6545542E-2,2.679731E-2,1.2777805E-2,1.0457754E-2,0E0,0E0,0E0,3.9751053E-2,0E0,0E0,0E0,0E0,0E0,0E0,0E0,0E0,0E0,0E0,0E0,0E0,0E0,0E0,0E0,0E0,0E0,0E0,0E0,0E0,0E0,0E0],"parents":[2147483647,0,0,1,1,2,2,3,3,4,4,5,5,6,6,7,7,8,8,9,9,10,10,11,11,12,12,13,13,14,14,15,15,18,18,19,19,20,20,21,21,22,22,23,23,24,24,25,25,26,26,30,30],"right_children":[2,4,6,8,10,12,14,16,18,20,22,24,26,28,30,32,-1,-1,34,36,38,40,42,44,46,48,50,-1,-1,-1,52,-1,-1,-1,-1,-1,-1,-1,-1,-1,-1,-1,-1,-1,-1,-1,-1,-1,-1,-1,-1,-1,-1],"split_conditions":[-4.8628005E-1,-8.8660043E-1,3.567466E-1,-1.0290481E0,-7.226004E-1,-1.690866E-1,1.1420974E0,-1.23775E0,-9.674004E-1,-8.165706E-1,-6.20041E-1,-3.4446588E-1,4.6156574E-2,7.062381E-1,2.0945303E0,-6.6567284E-1,-5.4986518E-2,-4.0004812E-2,-9.3867207E-1,-8.382569E-1,-7.654736E-1,-6.788744E-1,-5.3006697E-1,-4.1757816E-1,-2.9439232E-1,-8.5326105E-2,1.7929618E-1,1.5378259E-2,1.9456796E-2,2.5142988E-2,2.996829E0,-2.3133649E-2,-8.531853E-2,-3.0694807E-2,-2.6135122E-2,-2.1484213E-2,-1.8030196E-2,-1.6058262E-2,-1.3391822E-2,-1.1162556E-2,-8.784651E-3,-5.899214E-3,-3.2668568E-3,-1.6267361E-3,1.8178496E-4,1.7428346E-3,4.0025874E-3,5.9901937E-3,8.022504E-3,1.022843E-2,1.23193255E-2,3.0512521E-2,3.76871E-2],"split_indices":[2,2,2,2,2,2,2,3,2,2,2,2,2,2,2,0,0,0,2,2,2,2,2,2,2,2,2,0,0,0,2,0,0,0,0,0,0,0,0,0,0,0,0,0,0,0,0,0,0,0,0,0,0],"split_type":[0,0,0,0,0,0,0,0,0,0,0,0,0,0,0,0,0,0,0,0,0,0,0,0,0,0,0,0,0,0,0,0,0,0,0,0,0,0,0,0,0,0,0,0,0,0,0,0,0,0,0,0,0],"sum_hessian":[2.865E3,1.242E3,1.623E3,3.36E2,9.06E2,8.27E2,7.96E2,3.4E1,3.02E2,4.14E2,4.92E2,4.25E2,4.02E2,3.81E2,4.15E2,1.1E1,2.3E1,7.8E1,2.24E2,1.9E2,2.24E2,2.57E2,2.35E2,2.01E2,2.24E2,1.9E2,2.12E2,2.02E2,1.79E2,2.57E2,1.58E2,1E0,1E1,7.9E1,1.45E2,1.34E2,5.6E1,1.34E2,9E1,1.34E2,1.23E2,1.68E2,6.7E1,1.01E2,1E2,9E1,1.34E2,6.7E1,1.23E2,1.01E2,1.11E2,1.23E2,3.5E1],"tree_param":{"num_deleted":"0","num_feature":"4","num_nodes":"53","size_leaf_vector":"1"}},{"base_weights":[-8.144939E-4,-1.6585132E-1,1.2550421E-1,-3.0786306E-1,-1.08056895E-1,5.2767623E-2,2.1210833E-1,-5.573611E-1,-2.7033192E-1,-1.5359549E-1,-6.770324E-2,1.448524E-2,9.389168E-2,1.7351931E-1,2.6700926E-1,-7.4761593E-1,-4.762063E-2,-3.3695754E-2,-2.424802E-1,-1.7676719E-1,-1.2828688E-1,-8.60397E-2,-4.2858947E-2,-2.2731493E-3,3.581781E-2,7.434775E-2,1.1308655E-1,1.4718863E-2,1.954329E-1,2.5259823E-1,3.2377675E-2,-2.197696E-2,-7.7562295E-2,-2.5819981E-2,-2.2062449E-2,-1.9015484E-2,-1.6020276E-2,-1.36662815E-2,-1.1634502E-2,-9.5359115E-3,-7.224761E-3,-4.929571E-3,-2.94498E-3,-1.2853538E-3,7.461972E-4,2.7344064E-3,4.6059093E-3,6.384077E-3,8.317399E-3,1.0193459E-2,1.222331E-2,1.7992401E-2,2.0798994E-2,2.2859326E-2,2.6467323E-2],"categories":[],"categories_nodes":[],"categories_segments":[],"categories_sizes":[],"default_left":[0,0,0,0,0,0,0,0,0,0,0,0,0,0,0,0,0,0,0,0,0,0,0,0,0,0,0,0,0,0,0,0,0,0,0,0,0,0,0,0,0,0,0,0,0,0,0,0,0,0,0,0,0,0,0],"id":17,"left_children":[1,3,5,7,9,11,13,15,17,19,21,23,25,27,29,31,-1,-1,33,35,37,39,41,43,45,47,49,-1,51,53,-1,-1,-1,-1,-1,-1,-1,-1,-1,-1,-1,-1,-1,-1,-1,-1,-1,-1,-1,-1,-1,-1,-1,-1,-1],"loss_changes":[5.9769005E1,1.016864E1,1.0218851E1,3.2109833E0,1.615921E0,1.3903451E0,1.523529E0,3.5422516E-1,5.009632E-1,2.206974E-1,2.1087956E-1,1.6417369E-1,1.5140319E-1,2.2396183E-1,1.6691017E-1,6.942272E-3,0E0,0E0,2.0336151E-2,1.6992569E-2,4.304886E-3,2.7814746E-2,1.5983164E-2,2.6670264E-2,1.6270548E-2,1.4535904E-2,9.266615E-3,0E0,8.5372925E-3,1.1092186E-2,0E0,0E0,0E0,0E0,0E0,0E0,0E0,0E0,0E0,0E0,0E0,0E0,0E0,0E0,0E0,0E0,0E0,0E0,0E0,0E0,0E0,0E0,0E0,0E0,0E0],"parents":[2147483647,0,0,1,1,2,2,3,3,4,4,5,5,6,6,7,7,8,8,9,9,10,10,11,11,12,12,13,13,14,14,15,15,18,18,19,19,20,20,21,21,22,22,23,23,24,24,25,25,26,26,28,28,29,29],"right_children":[2,4,6,8,10,12,14,16,18,20,22,24,26,28,30,32,-1,-1,34,36,38,40,42,44,46,48,50,-1,52,54,-1,-1,-1,-1,-1,-1,-1,-1,-1,-1,-1,-1,-1,-1,-1,-1,-1,-1,-1,-1,-1,-1,-1,-1,-1],"split_conditions":[-4.8628005E-1,-8.81386E-1,4.4730544E-1,-1.0170597E0,-7.139137E-1,-1.3184212E-1,1.5214868E0,-1.23775E0,-9.5594805E-1,-7.9896563E-1,-6.040321E-1,-3.134471E-1,1.17234215E-1,8.2455057E-1,2.783779E0,-6.6567284E-1,-4.762063E-2,-3.3695754E-2,-9.152679E-1,-8.382569E-1,-7.5565386E-1,-6.6111106E-1,-5.3006697E-1,-4.0544355E-1,-2.1217911E-1,-6.2318183E-3,2.6434812E-1,1.4718863E-2,1.096422E0,1.8288116E0,3.2377675E-2,-2.197696E-2,-7.7562295E-2,-2.5819981E-2,-2.2062449E-2,-1.9015484E-2,-1.6020276E-2,-1.36662815E-2,-1.1634502E-2,-9.5359115E-3,-7.224761E-3,-4.929571E-3,-2.94498E-3,-1.2853538E-3,7.461972E-4,2.7344064E-3,4.6059093E-3,6.384077E-3,8.317399E-3,1.0193459E-2,1.222331E-2,1.7992401E-2,2.0798994E-2,2.2859326E-2,2.6467323E-2],"split_indices":[2,2,2,2,2,2,2,3,2,2,2,2,2,2,2,0,0,0,2,2,2,2,2,2,2,2,2,0,2,2,0,0,0,0,0,0,0,0,0,0,0,0,0,0,0,0,0,0,0,0,0,0,0,0,0],"split_type":[0,0,0,0,0,0,0,0,0,0,0,0,0,0,0,0,0,0,0,0,0,0,0,0,0,0,0,0,0,0,0,0,0,0,0,0,0,0,0,0,0,0,0,0,0,0,0,0,0,0,0,0,0,0,0],"sum_hessian":[2.865E3,1.242E3,1.623E3,3.58E2,8.84E2,8.83E2,7.4E2,4.5E1,3.13E2,4.14E2,4.7E2,4.58E2,4.25E2,4.37E2,3.03E2,1.1E1,3.4E1,8.9E1,2.24E2,2.13E2,2.01E2,2.69E2,2.01E2,2.57E2,2.01E2,2.13E2,2.12E2,2.02E2,2.35E2,2.46E2,5.7E1,1E0,1E1,1.24E2,1E2,1.12E2,1.01E2,1.12E2,8.9E1,1.57E2,1.12E2,1.34E2,6.7E1,1.23E2,1.34E2,1.12E2,8.9E1,1.01E2,1.12E2,1.01E2,1.11E2,1.12E2,1.23E2,8.9E1,1.57E2],"tree_param":{"num_deleted":"0","num_feature":"4","num_nodes":"55","size_leaf_vector":"1"}},{"base_weights":[-7.8003336E-4,-1.4951868E-1,1.13064125E-1,-2.866259E-1,-1.0066631E-1,5.2758846E-2,1.9798587E-1,-5.431598E-1,-2.548954E-1,-1.4892985E-1,-6.63E-2,1.3962159E-2,9.063926E-2,1.6912226E-1,2.5049338E-1,-6.811493E-2,-4.515334E-2,-3.3419847E-2,-2.2979537E-1,-1.7545938E-2,-1.3188645E-1,-8.696333E-2,-4.3537598E-2,-1.3779153E-3,3.4046363E-2,7.077837E-2,1.0916829E-1,1.472404E-1,1.9133858E-2,2.3887053E-2,3.087522E-2,-2.5461907E-2,-2.148915E-2,-1.4241676E-2,-1.1916393E-2,-9.767525E-3,-7.653428E-3,-5.601266E-3,-3.3736613E-3,-9.547325E-4,1.0086149E-3,2.6956154E-3,4.469923E-3,6.0262084E-3,7.970615E-3,9.695667E-3,1.1695198E-2,1.3638727E-2,1.592147E-2],"categories":[],"categories_nodes":[],"categories_segments":[],"categories_sizes":[],"default_left":[0,0,0,0,0,0,0,0,0,0,0,0,0,0,0,0,0,0,0,0,0,0,0,0,0,0,0,0,0,0,0,0,0,0,0,0,0,0,0,0,0,0,0,0,0,0,0,0,0],"id":18,"left_children":[1,3,5,7,9,11,13,15,17,19,21,23,25,27,29,-1,-1,-1,31,-1,33,35,37,39,41,43,45,47,-1,-1,-1,-1,-1,-1,-1,-1,-1,-1,-1,-1,-1,-1,-1,-1,-1,-1,-1,-1,-1],"loss_changes":[4.8546955E1,8.296778E0,8.306431E0,2.5151749E0,1.5127563E0,1.3963575E0,9.7912025E-1,1.3496017E-1,5.044308E-1,1.4913082E-1,2.4926043E-1,1.4515881E-1,1.6928244E-1,1.8475437E-1,8.673E-2,0E0,0E0,0E0,2.852726E-2,0E0,1.4647007E-2,2.3916721E-2,2.9655427E-2,2.519574E-2,1.4203414E-2,1.7260194E-2,1.2138367E-2,7.525444E-3,0E0,0E0,0E0,0E0,0E0,0E0,0E0,0E0,0E0,0E0,0E0,0E0,0E0,0E0,0E0,0E0,0E0,0E0,0E0,0E0,0E0],"parents":[2147483647,0,0,1,1,2,2,3,3,4,4,5,5,6,6,7,7,8,8,9,9,10,10,11,11,12,12,13,13,14,14,18,18,20,20,21,21,22,22,23,23,24,24,25,25,26,26,27,27],"right_children":[2,4,6,8,10,12,14,16,18,20,22,24,26,28,30,-1,-1,-1,32,-1,34,36,38,40,42,44,46,48,-1,-1,-1,-1,-1,-1,-1,-1,-1,-1,-1,-1,-1,-1,-1,-1,-1,-1,-1,-1,-1],"split_conditions":[-4.8628005E-1,-8.89427E-1,5.5425084E-1,-1.0290481E0,-7.430441E-1,-1.1534587E-1,1.7260085E0,-1.23775E0,-9.734921E-1,-8.382569E-1,-6.313837E-1,-3.0696556E-1,1.5818244E-1,1.0437899E0,2.996829E0,-6.811493E-2,-4.515334E-2,-3.3419847E-2,-9.417301E-1,-1.7545938E-2,-7.928374E-1,-6.9410354E-1,-5.678597E-1,-3.848415E-1,-1.9345331E-1,1.3261536E-2,3.1639537E-1,7.984295E-1,1.9133858E-2,2.3887053E-2,3.087522E-2,-2.5461907E-2,-2.148915E-2,-1.4241676E-2,-1.1916393E-2,-9.767525E-3,-7.653428E-3,-5.601266E-3,-3.3736613E-3,-9.547325E-4,1.0086149E-3,2.6956154E-3,4.469923E-3,6.0262084E-3,7.970615E-3,9.695667E-3,1.1695198E-2,1.3638727E-2,1.592147E-2],"split_indices":[2,2,2,2,2,2,2,3,2,2,2,2,2,2,2,0,0,0,2,0,2,2,2,2,2,2,2,2,0,0,0,0,0,0,0,0,0,0,0,0,0,0,0,0,0,0,0,0,0],"split_type":[0,0,0,0,0,0,0,0,0,0,0,0,0,0,0,0,0,0,0,0,0,0,0,0,0,0,0,0,0,0,0,0,0,0,0,0,0,0,0,0,0,0,0,0,0,0,0,0,0],"sum_hessian":[2.865E3,1.242E3,1.623E3,3.25E2,9.17E2,9.5E2,6.73E2,3.4E1,2.91E2,3.8E2,5.37E2,4.7E2,4.8E2,4.37E2,2.36E2,1.1E1,2.3E1,6.7E1,2.24E2,1.45E2,2.35E2,2.8E2,2.57E2,2.67E2,2.03E2,2.34E2,2.46E2,2.24E2,2.13E2,2.01E2,3.5E1,7.8E1,1.46E2,1.23E2,1.12E2,1.34E2,1.46E2,1.11E2,1.46E2,1.56E2,1.11E2,1.24E2,7.9E1,1.11E2,1.23E2,1.01E2,1.45E2,1.24E2,1E2],"tree_param":{"num_deleted":"0","num_feature":"4","num_nodes":"49","size_leaf_vector":"1"}},{"base_weights":[-7.4314163E-4,-1.2559453E-1,1.094348E-1,-2.4098258E-1,-7.5921446E-2,5.770823E-2,1.828622E-1,-3.9744702E-1,-2.0172676E-1,-1.151586E-1,-4.3380845E-2,2.5167597E-2,9.0120055E-2,1.5748288E-1,2.2742143E-1,-6.0857993E-2,-3.5123855E-1,-2.3269825E-2,-1.8171592E-1,-1.3567335E-2,-9.806761E-2,-6.36822E-2,-2.4648199E-2,9.833346E-3,4.1889008E-2,7.261049E-2,1.04074754E-1,1.3876768E-2,1.7551113E-2,2.1655915E-2,2.7873466E-2,-3.8773604E-2,-3.0077958E-2,-1.9411828E-2,-1.6765362E-2,-1.0735322E-2,-8.881486E-3,-7.296716E-3,-5.543863E-3,-3.682591E-3,-1.5782822E-3,1.4121934E-4,1.6060778E-3,3.4191061E-3,5.000645E-3,6.4972653E-3,7.960503E-3,9.220155E-3,1.0900913E-2],"categories":[],"categories_nodes":[],"categories_segments":[],"categories_sizes":[],"default_left":[0,0,0,0,0,0,0,0,0,0,0,0,0,0,0,0,0,0,0,0,0,0,0,0,0,0,0,0,0,0,0,0,0,0,0,0,0,0,0,0,0,0,0,0,0,0,0,0,0],"id":19,"left_children":[1,3,5,7,9,11,13,15,17,19,21,23,25,27,29,-1,31,-1,33,-1,35,37,39,41,43,45,47,-1,-1,-1,-1,-1,-1,-1,-1,-1,-1,-1,-1,-1,-1,-1,-1,-1,-1,-1,-1,-1,-1],"loss_changes":[3.943806E1,7.6850834E0,5.774025E0,2.401247E0,1.1964736E0,9.4168925E-1,6.755104E-1,5.667324E-1,1.5914059E-1,1.3605785E-1,1.9466418E-1,1.144599E-1,1.0190773E-1,1.1195564E-1,6.560516E-2,0E0,8.606911E-3,0E0,2.68507E-3,0E0,1.07421875E-2,1.4860511E-2,2.8567985E-2,1.230122E-2,1.1662602E-2,5.6194067E-3,4.420042E-3,0E0,0E0,0E0,0E0,0E0,0E0,0E0,0E0,0E0,0E0,0E0,0E0,0E0,0E0,0E0,0E0,0E0,0E0,0E0,0E0,0E0,0E0],"parents":[2147483647,0,0,1,1,2,2,3,3,4,4,5,5,6,6,7,7,8,8,9,9,10,10,11,11,12,12,13,13,14,14,16,16,18,18,20,20,21,21,22,22,23,23,24,24,25,25,26,26],"right_children":[2,4,6,8,10,12,14,16,18,20,22,24,26,28,30,-1,32,-1,34,-1,36,38,40,42,44,46,48,-1,-1,-1,-1,-1,-1,-1,-1,-1,-1,-1,-1,-1,-1,-1,-1,-1,-1,-1,-1,-1,-1],"split_conditions":[-4.1757816E-1,-8.646948E-1,6.2560874E-1,-9.888431E-1,-6.982825E-1,-2.1777768E-2,1.7776417E0,-1.0505518E0,-9.33287E-1,-7.928374E-1,-5.844169E-1,-2.524207E-1,2.2933319E-1,1.096422E0,2.996829E0,-6.0857993E-2,-1.1052641E0,-2.3269825E-2,-8.9777255E-1,-1.3567335E-2,-7.430441E-1,-6.5673727E-1,-5.20832E-1,-3.4446588E-1,-1.4423259E-1,9.300154E-2,3.567466E-1,1.3876768E-2,1.7551113E-2,2.1655915E-2,2.7873466E-2,-3.8773604E-2,-3.0077958E-2,-1.9411828E-2,-1.6765362E-2,-1.0735322E-2,-8.881486E-3,-7.296716E-3,-5.543863E-3,-3.682591E-3,-1.5782822E-3,1.4121934E-4,1.6060778E-3,3.4191061E-3,5.000645E-3,6.4972653E-3,7.960503E-3,9.220155E-3,1.0900913E-2],"split_indices":[2,2,2,2,2,2,2,2,2,2,2,2,2,2,2,0,3,0,2,0,2,2,2,2,2,2,2,0,0,0,0,0,0,0,0,0,0,0,0,0,0,0,0,0,0,0,0,0,0],"split_type":[0,0,0,0,0,0,0,0,0,0,0,0,0,0,0,0,0,0,0,0,0,0,0,0,0,0,0,0,0,0,0,0,0,0,0,0,0,0,0,0,0,0,0,0,0,0,0,0,0],"sum_hessian":[2.865E3,1.343E3,1.522E3,4.03E2,9.4E2,8.94E2,6.28E2,7.9E1,3.24E2,4.25E2,5.15E2,4.47E2,4.47E2,4.03E2,2.25E2,1.2E1,6.7E1,1.23E2,2.01E2,1.9E2,2.35E2,2.46E2,2.69E2,2.34E2,2.13E2,2.01E2,2.46E2,2.02E2,2.01E2,1.9E2,3.5E1,3.5E1,3.2E1,1E2,1.01E2,1.12E2,1.23E2,1.12E2,1.34E2,1.12E2,1.57E2,1E2,1.34E2,1.12E2,1.01E2,1.01E2,1E2,7.8E1,1.68E2],"tree_param":{"num_deleted":"0","num_feature":"4","num_nodes":"49","size_leaf_vector":"1"}},{"base_weights":[-7.088378E-4,-1.1966138E-1,9.3221046E-2,-2.2372544E-1,-7.639051E-2,4.6269584E-2,1.6372266E-1,-4.468425E-1,-1.9988917E-1,-1.1029904E-1,-4.7107276E-2,1.4064251E-2,7.694391E-2,1.3433287E-1,1.9576424E-1,-5.647643E-1,-3.6926314E-2,-2.7217476E-2,-1.8094358E-1,-1.3003431E-2,-9.486298E-2,-6.1418943E-2,-2.8744562E-2,1.3304057E-3,3.1015113E-2,6.037519E-2,9.180156E-2,1.1728239E-2,1.4501012E-2,1.807603E-2,2.2837376E-2,-1.5533686E-2,-5.878635E-2,-1.961848E-2,-1.6141614E-2,-1.0227911E-2,-8.5739065E-3,-6.868499E-3,-5.2309856E-3,-3.4552512E-3,-1.845573E-3,-5.8936037E-4,9.883622E-4,2.3799834E-3,3.7855585E-3,5.1030396E-3,6.698848E-3,8.1949495E-3,9.751839E-3],"categories":[],"categories_nodes":[],"categories_segments":[],"categories_sizes":[],"default_left":[0,0,0,0,0,0,0,0,0,0,0,0,0,0,0,0,0,0,0,0,0,0,0,0,0,0,0,0,0,0,0,0,0,0,0,0,0,0,0,0,0,0,0,0,0,0,0,0,0],"id":20,"left_children":[1,3,5,7,9,11,13,15,17,19,21,23,25,27,29,31,-1,-1,33,-1,35,37,39,41,43,45,47,-1,-1,-1,-1,-1,-1,-1,-1,-1,-1,-1,-1,-1,-1,-1,-1,-1,-1,-1,-1,-1,-1],"loss_changes":[3.2033543E1,5.6791306E0,5.295292E0,1.8837624E0,8.834958E-1,9.502435E-1,5.763874E-1,1.1164427E-1,4.1227055E-1,1.1378336E-1,1.2490451E-1,1.0162391E-1,1.1582017E-1,4.4344425E-2,1.0745716E-1,2.2172213E-2,0E0,0E0,4.8690796E-2,0E0,7.199526E-3,1.4277577E-2,1.2090564E-2,1.674115E-2,9.068951E-3,1.1166275E-2,6.5398216E-3,0E0,0E0,0E0,0E0,0E0,0E0,0E0,0E0,0E0,0E0,0E0,0E0,0E0,0E0,0E0,0E0,0E0,0E0,0E0,0E0,0E0,0E0],"parents":[2147483647,0,0,1,1,2,2,3,3,4,4,5,5,6,6,7,7,8,8,9,9,10,10,11,11,12,12,13,13,14,14,15,15,18,18,20,20,21,21,22,22,23,23,24,24,25,25,26,26],"right_children":[2,4,6,8,10,12,14,16,18,20,22,24,26,28,30,32,-1,-1,34,-1,36,38,40,42,44,46,48,-1,-1,-1,-1,-1,-1,-1,-1,-1,-1,-1,-1,-1,-1,-1,-1,-1,-1,-1,-1,-1,-1],"split_conditions":[-4.7391394E-1,-8.7656134E-1,6.079429E-1,-1.0290481E0,-7.0938146E-1,-8.5326105E-2,1.5214868E0,-1.23775E0,-9.734921E-1,-8.0572736E-1,-5.972825E-1,-2.9439232E-1,1.9218616E-1,8.9021885E-1,2.577113E0,-6.6567284E-1,-3.6926314E-2,-2.7217476E-2,-9.183015E-1,-1.3003431E-2,-7.605272E-1,-6.6111106E-1,-5.20832E-1,-3.7420544E-1,-1.9345331E-1,2.5018467E-2,3.567466E-1,1.1728239E-2,1.4501012E-2,1.807603E-2,2.2837376E-2,-1.5533686E-2,-5.878635E-2,-1.961848E-2,-1.6141614E-2,-1.0227911E-2,-8.5739065E-3,-6.868499E-3,-5.2309856E-3,-3.4552512E-3,-1.845573E-3,-5.8936037E-4,9.883622E-4,2.3799834E-3,3.7855585E-3,5.1030396E-3,6.698848E-3,8.1949495E-3,9.751839E-3],"split_indices":[2,2,2,2,2,2,2,3,2,2,2,2,2,2,2,0,0,0,2,0,2,2,2,2,2,2,2,0,0,0,0,0,0,0,0,0,0,0,0,0,0,0,0,0,0,0,0,0,0],"split_type":[0,0,0,0,0,0,0,0,0,0,0,0,0,0,0,0,0,0,0,0,0,0,0,0,0,0,0,0,0,0,0,0,0,0,0,0,0,0,0,0,0,0,0,0,0,0,0,0,0],"sum_hessian":[2.865E3,1.264E3,1.601E3,3.7E2,8.94E2,9.62E2,6.39E2,3.4E1,3.36E2,4.13E2,4.81E2,4.7E2,4.92E2,3.36E2,3.03E2,1.1E1,2.3E1,6.7E1,2.69E2,1.78E2,2.35E2,2.69E2,2.12E2,2.69E2,2.01E2,2.35E2,2.57E2,1.34E2,2.02E2,2.12E2,9.1E1,1E0,1E1,1.46E2,1.23E2,1.24E2,1.11E2,1.46E2,1.23E2,1.34E2,7.8E1,1.46E2,1.23E2,1E2,1.01E2,1.01E2,1.34E2,1E2,1.57E2],"tree_param":{"num_deleted":"0","num_feature":"4","num_nodes":"49","size_leaf_vector":"1"}},{"base_weights":[-6.798643E-4,-1.04541235E-1,8.670554E-2,-1.9271515E-1,-6.1980076E-2,4.4869084E-2,1.4835794E-1,-3.560901E-1,-1.6702573E-1,-8.859483E-2,-3.4492653E-2,1.7857794E-2,7.24888E-2,1.2826647E-1,1.8644913E-1,-5.144812E-1,-3.0702958E-2,-2.109397E-2,-1.497534E-1,-1.0435768E-1,-7.3925994E-2,-4.8350144E-2,-2.1220926E-2,4.855961E-3,3.2051552E-2,5.8289547E-2,8.4440015E-2,1.1220953E-2,1.42967375E-2,1.7840467E-2,2.4045074E-2,-1.4757002E-2,-5.344213E-2,-1.6138166E-2,-1.3485439E-2,-1.1244091E-2,-9.613779E-3,-7.928929E-3,-6.4508766E-3,-5.468266E-3,-4.226223E-3,-2.7813027E-3,-1.2998951E-3,-2.1892774E-4,1.0717117E-3,2.3423005E-3,3.7525946E-3,5.04226E-3,6.352935E-3,7.5906264E-3,8.88485E-3],"categories":[],"categories_nodes":[],"categories_segments":[],"categories_sizes":[],"default_left":[0,0,0,0,0,0,0,0,0,0,0,0,0,0,0,0,0,0,0,0,0,0,0,0,0,0,0,0,0,0,0,0,0,0,0,0,0,0,0,0,0,0,0,0,0,0,0,0,0,0,0],"id":21,"left_children":[1,3,5,7,9,11,13,15,17,19,21,23,25,27,29,31,-1,-1,33,35,37,39,41,43,45,47,49,-1,-1,-1,-1,-1,-1,-1,-1,-1,-1,-1,-1,-1,-1,-1,-1,-1,-1,-1,-1,-1,-1,-1,-1],"loss_changes":[2.6020788E1,4.9042025E0,4.009342E0,1.7284489E0,6.443844E-1,6.9178045E-1,4.574623E-1,2.8497124E-1,2.4905396E-1,9.6104145E-2,7.9343796E-2,8.676499E-2,7.2969675E-2,8.191967E-2,5.0501347E-2,8.930445E-3,0E0,0E0,2.4841309E-2,3.4091473E-3,6.804824E-3,5.900532E-3,1.1833489E-2,1.0222893E-2,9.749129E-3,5.5767894E-3,2.5480986E-3,0E0,0E0,0E0,0E0,0E0,0E0,0E0,0E0,0E0,0E0,0E0,0E0,0E0,0E0,0E0,0E0,0E0,0E0,0E0,0E0,0E0,0E0,0E0,0E0],"parents":[2147483647,0,0,1,1,2,2,3,3,4,4,5,5,6,6,7,7,8,8,9,9,10,10,11,11,12,12,13,13,14,14,15,15,18,18,19,19,20,20,21,21,22,22,23,23,24,24,25,25,26,26],"right_children":[2,4,6,8,10,12,14,16,18,20,22,24,26,28,30,32,-1,-1,34,36,38,40,42,44,46,48,50,-1,-1,-1,-1,-1,-1,-1,-1,-1,-1,-1,-1,-1,-1,-1,-1,-1,-1,-1,-1,-1,-1,-1,-1],"split_conditions":[-4.434312E-1,-8.5770154E-1,6.2560874E-1,-1.0072399E0,-6.827365E-1,-3.9090306E-2,1.8288116E0,-1.23775E0,-9.4918627E-1,-7.755736E-1,-5.721117E-1,-2.7578837E-1,2.2933319E-1,1.096422E0,3.1042497E0,-6.6567284E-1,-3.0702958E-2,-2.109397E-2,-8.9777255E-1,-8.165706E-1,-7.0938146E-1,-6.4152026E-1,-5.1095134E-1,-3.642151E-1,-1.8632604E-1,6.155632E-2,3.7424192E-1,1.1220953E-2,1.42967375E-2,1.7840467E-2,2.4045074E-2,-1.4757002E-2,-5.344213E-2,-1.6138166E-2,-1.3485439E-2,-1.1244091E-2,-9.613779E-3,-7.928929E-3,-6.4508766E-3,-5.468266E-3,-4.226223E-3,-2.7813027E-3,-1.2998951E-3,-2.1892774E-4,1.0717117E-3,2.3423005E-3,3.7525946E-3,5.04226E-3,6.352935E-3,7.5906264E-3,8.88485E-3],"split_indices":[2,2,2,2,2,2,2,3,2,2,2,2,2,2,2,0,0,0,2,2,2,2,2,2,2,2,2,0,0,0,0,0,0,0,0,0,0,0,0,0,0,0,0,0,0,0,0,0,0,0,0],"split_type":[0,0,0,0,0,0,0,0,0,0,0,0,0,0,0,0,0,0,0,0,0,0,0,0,0,0,0,0,0,0,0,0,0,0,0,0,0,0,0,0,0,0,0,0,0,0,0,0,0,0,0],"sum_hessian":[2.865E3,1.309E3,1.556E3,4.25E2,8.84E2,9.28E2,6.28E2,5.6E1,3.69E2,4.48E2,4.36E2,4.7E2,4.58E2,4.14E2,2.14E2,1.1E1,4.5E1,1.01E2,2.68E2,2.13E2,2.35E2,2.12E2,2.24E2,2.46E2,2.24E2,2.12E2,2.46E2,2.02E2,2.12E2,1.9E2,2.4E1,1E0,1E1,1.45E2,1.23E2,1.01E2,1.12E2,1.45E2,9E1,1E2,1.12E2,1.23E2,1.01E2,1.12E2,1.34E2,8.9E1,1.35E2,8.9E1,1.23E2,9E1,1.56E2],"tree_param":{"num_deleted":"0","num_feature":"4","num_nodes":"51","size_leaf_vector":"1"}},{"base_weights":[-6.45508E-4,-9.352182E-2,7.871429E-2,-1.7864867E-1,-5.7409465E-2,4.1001517E-2,1.3362941E-1,-3.6946958E-1,-1.5954733E-1,-8.560672E-2,-3.346217E-2,1.4783789E-2,6.357302E-2,1.1477785E-1,1.667374E-1,-4.6871626E-1,-3.0445172E-2,-2.1106412E-1,-1.415266E-1,-1.0171052E-1,-7.3524565E-2,-4.700887E-2,-1.9176707E-2,3.778979E-3,2.577086E-2,5.0196443E-2,7.5562544E-2,1.0104388E-1,1.280116E-2,1.5809635E-2,2.0795139E-2,-3.7576895E-2,-7.4556835E-2,-2.2921814E-2,-1.7837398E-2,-1.52995875E-2,-1.2688111E-2,-1.1019993E-2,-9.413823E-3,-7.972204E-3,-6.546984E-3,-5.3178854E-3,-3.991244E-3,-2.6853879E-3,-1.2608581E-3,-1.9520403E-4,7.9543324E-4,1.9401169E-3,3.1236063E-3,4.2678937E-3,5.550451E-3,6.7123733E-3,7.960948E-3,9.08332E-3,1.0681654E-2],"categories":[],"categories_nodes":[],"categories_segments":[],"categories_sizes":[],"default_left":[0,0,0,0,0,0,0,0,0,0,0,0,0,0,0,0,0,0,0,0,0,0,0,0,0,0,0,0,0,0,0,0,0,0,0,0,0,0,0,0,0,0,0,0,0,0,0,0,0,0,0,0,0,0,0],"id":22,"left_children":[1,3,5,7,9,11,13,15,17,19,21,23,25,27,29,31,-1,33,35,37,39,41,43,45,47,49,51,53,-1,-1,-1,-1,-1,-1,-1,-1,-1,-1,-1,-1,-1,-1,-1,-1,-1,-1,-1,-1,-1,-1,-1,-1,-1,-1,-1],"loss_changes":[2.1131632E1,4.0506706E0,3.196289E0,1.3735113E0,6.244409E-1,5.4230833E-1,3.7344456E-1,8.314657E-2,3.034134E-1,7.540822E-2,9.663302E-2,5.1410526E-2,7.527387E-2,6.0492992E-2,4.760933E-2,2.8630495E-2,0E0,1.3118267E-2,2.5772572E-2,1.1969805E-3,7.1105957E-3,9.173989E-3,1.2116291E-2,5.136339E-3,6.808877E-3,7.0483685E-3,3.4673214E-3,2.2628307E-3,0E0,0E0,0E0,0E0,0E0,0E0,0E0,0E0,0E0,0E0,0E0,0E0,0E0,0E0,0E0,0E0,0E0,0E0,0E0,0E0,0E0,0E0,0E0,0E0,0E0,0E0,0E0],"parents":[2147483647,0,0,1,1,2,2,3,3,4,4,5,5,6,6,7,7,8,8,9,9,10,10,11,11,12,12,13,13,14,14,15,15,17,17,18,18,19,19,20,20,21,21,22,22,23,23,24,24,25,25,26,26,27,27],"right_children":[2,4,6,8,10,12,14,16,18,20,22,24,26,28,30,32,-1,34,36,38,40,42,44,46,48,50,52,54,-1,-1,-1,-1,-1,-1,-1,-1,-1,-1,-1,-1,-1,-1,-1,-1,-1,-1,-1,-1,-1,-1,-1,-1,-1,-1,-1],"split_conditions":[-4.31455E-1,-8.6816704E-1,6.2560874E-1,-1.0290481E0,-7.0163286E-1,-7.704143E-2,1.7776417E0,-1.23775E0,-9.6143055E-1,-7.9896563E-1,-5.844169E-1,-2.9439232E-1,2.1215467E-1,1.096422E0,2.996829E0,2.423282E0,-3.0445172E-2,-9.883596E-1,-9.118687E-1,-8.382569E-1,-7.430441E-1,-6.5038973E-1,-5.20832E-1,-3.7420544E-1,-1.9345331E-1,3.489916E-2,3.567466E-1,7.984295E-1,1.280116E-2,1.5809635E-2,2.0795139E-2,-3.7576895E-2,-7.4556835E-2,-2.2921814E-2,-1.7837398E-2,-1.52995875E-2,-1.2688111E-2,-1.1019993E-2,-9.413823E-3,-7.972204E-3,-6.546984E-3,-5.3178854E-3,-3.991244E-3,-2.6853879E-3,-1.2608581E-3,-1.9520403E-4,7.9543324E-4,1.9401169E-3,3.1236063E-3,4.2678937E-3,5.550451E-3,6.7123733E-3,7.960948E-3,9.08332E-3,1.0681654E-2],"split_indices":[2,2,2,2,2,2,2,3,2,2,2,2,2,2,2,0,0,3,2,2,2,2,2,2,2,2,2,2,0,0,0,0,0,0,0,0,0,0,0,0,0,0,0,0,0,0,0,0,0,0,0,0,0,0,0],"split_type":[0,0,0,0,0,0,0,0,0,0,0,0,0,0,0,0,0,0,0,0,0,0,0,0,0,0,0,0,0,0,0,0,0,0,0,0,0,0,0,0,0,0,0,0,0,0,0,0,0,0,0,0,0,0,0],"sum_hessian":[2.865E3,1.32E3,1.545E3,3.92E2,9.28E2,9.17E2,6.28E2,3.4E1,3.58E2,4.25E2,5.03E2,4.25E2,4.92E2,4.03E2,2.25E2,1.1E1,2.3E1,9E1,2.68E2,1.79E2,2.46E2,2.57E2,2.46E2,2.13E2,2.12E2,2.35E2,2.57E2,2.02E2,2.01E2,1.9E2,3.5E1,1E1,1E0,5.4E1,3.6E1,1.45E2,1.23E2,7.8E1,1.01E2,1.34E2,1.12E2,1.34E2,1.23E2,1.12E2,1.34E2,9E1,1.23E2,1E2,1.12E2,1.01E2,1.34E2,8.9E1,1.68E2,7.9E1,1.23E2],"tree_param":{"num_deleted":"0","num_feature":"4","num_nodes":"55","size_leaf_vector":"1"}},{"base_weights":[-6.368389E-4,-8.98116E-2,6.6558234E-2,-1.7592642E-1,-6.1658267E-2,2.9264394E-2,1.1546831E-1,-3.3659637E-1,-1.5436742E-1,-8.780921E-2,-3.8299706E-2,7.850143E-3,5.2238513E-2,9.254017E-2,1.4182964E-1,-4.311891E-1,-2.7527515E-2,-2.055457E-2,-1.3994709E-1,-1.052373E-2,-7.5357996E-2,-4.9933936E-2,-2.6510414E-2,-2.576527E-3,1.872954E-2,4.0770262E-2,6.236774E-2,7.891374E-3,1.01738535E-2,1.2857926E-2,1.6545902E-1,-3.4160815E-2,-7.0829E-2,-1.5410463E-2,-1.2854283E-2,-8.184488E-3,-6.763562E-3,-5.432439E-3,-4.3160017E-3,-3.3100431E-3,-2.0888413E-3,-8.3940895E-4,2.3120739E-4,1.3266102E-3,2.4559067E-3,3.5975631E-3,4.563525E-3,5.633414E-3,6.7363144E-3,1.54746985E-2,1.9740403E-2],"categories":[],"categories_nodes":[],"categories_segments":[],"categories_sizes":[],"default_left":[0,0,0,0,0,0,0,0,0,0,0,0,0,0,0,0,0,0,0,0,0,0,0,0,0,0,0,0,0,0,0,0,0,0,0,0,0,0,0,0,0,0,0,0,0,0,0,0,0,0,0],"id":23,"left_children":[1,3,5,7,9,11,13,15,17,19,21,23,25,27,29,31,-1,-1,33,-1,35,37,39,41,43,45,47,-1,-1,-1,49,-1,-1,-1,-1,-1,-1,-1,-1,-1,-1,-1,-1,-1,-1,-1,-1,-1,-1,-1,-1],"loss_changes":[1.7179352E1,2.976037E0,2.9789329E0,9.975977E-1,5.647259E-1,4.5663333E-1,4.1419792E-1,8.4323406E-2,1.697588E-1,8.7116E-2,6.62958E-2,5.472435E-2,4.9498916E-2,3.972602E-2,8.110905E-2,5.591798E-2,0E0,0E0,1.4581203E-2,0E0,7.438779E-3,5.001247E-3,8.459717E-3,7.044024E-3,7.1906224E-3,3.3266246E-3,3.3183098E-3,0E0,0E0,0E0,8.462667E-3,0E0,0E0,0E0,0E0,0E0,0E0,0E0,0E0,0E0,0E0,0E0,0E0,0E0,0E0,0E0,0E0,0E0,0E0,0E0,0E0],"parents":[2147483647,0,0,1,1,2,2,3,3,4,4,5,5,6,6,7,7,8,8,9,9,10,10,11,11,12,12,13,13,14,14,15,15,18,18,20,20,21,21,22,22,23,23,24,24,25,25,26,26,30,30],"right_children":[2,4,6,8,10,12,14,16,18,20,22,24,26,28,30,32,-1,-1,34,-1,36,38,40,42,44,46,48,-1,-1,-1,50,-1,-1,-1,-1,-1,-1,-1,-1,-1,-1,-1,-1,-1,-1,-1,-1,-1,-1,-1,-1],"split_conditions":[-4.9787858E-1,-8.9777255E-1,4.9596572E-1,-1.0290481E0,-7.2738844E-1,-1.1534587E-1,1.4322315E0,-1.23775E0,-9.8241025E-1,-8.344435E-1,-6.313837E-1,-3.2611775E-1,1.2893023E-1,7.984295E-1,2.3867967E0,2.423282E0,-2.7527515E-2,-2.055457E-2,-9.417301E-1,-1.052373E-2,-7.857711E-1,-6.788744E-1,-5.678597E-1,-4.1757816E-1,-2.2377765E-1,1.3261536E-2,3.0092254E-1,7.891374E-3,1.01738535E-2,1.2857926E-2,3.1042497E0,-3.4160815E-2,-7.0829E-2,-1.5410463E-2,-1.2854283E-2,-8.184488E-3,-6.763562E-3,-5.432439E-3,-4.3160017E-3,-3.3100431E-3,-2.0888413E-3,-8.3940895E-4,2.3120739E-4,1.3266102E-3,2.4559067E-3,3.5975631E-3,4.563525E-3,5.633414E-3,6.7363144E-3,1.54746985E-2,1.9740403E-2],"split_indices":[2,2,2,2,2,2,2,3,2,2,2,2,2,2,2,0,0,0,2,0,2,2,2,2,2,2,2,0,0,0,2,0,0,0,0,0,0,0,0,0,0,0,0,0,0,0,0,0,0,0,0],"split_type":[0,0,0,0,0,0,0,0,0,0,0,0,0,0,0,0,0,0,0,0,0,0,0,0,0,0,0,0,0,0,0,0,0,0,0,0,0,0,0,0,0,0,0,0,0,0,0,0,0,0,0],"sum_hessian":[2.865E3,1.231E3,1.634E3,3.02E2,9.29E2,9.28E2,7.06E2,3.4E1,2.68E2,4.37E2,4.92E2,4.81E2,4.47E2,3.8E2,3.26E2,1.1E1,2.3E1,5.6E1,2.12E2,1.79E2,2.58E2,2.46E2,2.46E2,2.46E2,2.35E2,2.12E2,2.35E2,1.57E2,2.23E2,2.13E2,1.13E2,1E1,1E0,8.9E1,1.23E2,1.35E2,1.23E2,1.45E2,1.01E2,1.11E2,1.35E2,1.12E2,1.34E2,1.23E2,1.12E2,1.11E2,1.01E2,1.12E2,1.23E2,8.9E1,2.4E1],"tree_param":{"num_deleted":"0","num_feature":"4","num_nodes":"51","size_leaf_vector":"1"}},{"base_weights":[-6.1923E-4,-8.038583E-2,6.0434032E-2,-1.5192734E-1,-5.2509896E-2,2.8657358E-2,1.06567726E-1,-3.0672288E-1,-1.3418922E-1,-7.5032055E-2,-3.300947E-2,7.480053E-3,4.8831504E-2,8.756228E-2,1.3020407E-1,-3.9681932E-1,-2.4889456E-2,-1.8050684E-1,-1.2089453E-1,-8.700499E-2,-6.3379884E-2,-4.1878536E-2,-2.0508396E-2,-1.122349E-3,1.7816221E-2,3.6731552E-2,5.7829574E-2,7.5677927E-3,9.5872E-3,1.2204257E-1,1.6116804E-2,-3.1055281E-2,-6.728755E-2,-1.8360212E-2,-8.508182E-3,-1.3656299E-2,-1.1285488E-2,-9.240006E-3,-7.743545E-3,-6.8547786E-3,-5.8154175E-3,-4.713389E-3,-3.5928828E-3,-2.4169842E-3,-1.4501717E-3,-6.825409E-4,3.2993508E-4,1.3729173E-3,2.3189604E-3,3.0871634E-3,3.9888606E-3,5.0750636E-3,6.222064E-3,1.1373881E-2,1.3183634E-2],"categories":[],"categories_nodes":[],"categories_segments":[],"categories_sizes":[],"default_left":[0,0,0,0,0,0,0,0,0,0,0,0,0,0,0,0,0,0,0,0,0,0,0,0,0,0,0,0,0,0,0,0,0,0,0,0,0,0,0,0,0,0,0,0,0,0,0,0,0,0,0,0,0,0,0],"id":24,"left_children":[1,3,5,7,9,11,13,15,17,19,21,23,25,27,29,31,-1,33,35,37,39,41,43,45,47,49,51,-1,-1,53,-1,-1,-1,-1,-1,-1,-1,-1,-1,-1,-1,-1,-1,-1,-1,-1,-1,-1,-1,-1,-1,-1,-1,-1,-1],"loss_changes":[1.3962309E1,2.4709206E0,2.3776908E0,9.143734E-1,3.9103913E-1,4.1106105E-1,2.8598166E-1,8.358836E-2,1.7153215E-1,5.238247E-2,5.2581847E-2,4.189937E-2,5.155182E-2,2.9284239E-2,5.437517E-2,7.6809525E-2,0E0,4.463911E-3,1.5702486E-2,3.2740831E-3,1.7929077E-3,7.092774E-3,4.0921047E-3,6.528562E-3,4.3813363E-3,2.7090907E-3,5.5769086E-3,0E0,0E0,4.197836E-3,0E0,0E0,0E0,0E0,0E0,0E0,0E0,0E0,0E0,0E0,0E0,0E0,0E0,0E0,0E0,0E0,0E0,0E0,0E0,0E0,0E0,0E0,0E0,0E0,0E0],"parents":[2147483647,0,0,1,1,2,2,3,3,4,4,5,5,6,6,7,7,8,8,9,9,10,10,11,11,12,12,13,13,14,14,15,15,17,17,18,18,19,19,20,20,21,21,22,22,23,23,24,24,25,25,26,26,29,29],"right_children":[2,4,6,8,10,12,14,16,18,20,22,24,26,28,30,32,-1,34,36,38,40,42,44,46,48,50,52,-1,-1,54,-1,-1,-1,-1,-1,-1,-1,-1,-1,-1,-1,-1,-1,-1,-1,-1,-1,-1,-1,-1,-1,-1,-1,-1,-1],"split_conditions":[-4.8628005E-1,-8.832744E-1,5.782155E-1,-1.0290481E0,-7.194693E-1,-1.1534587E-1,1.5528345E0,-1.23775E0,-9.734921E-1,-8.0572736E-1,-6.040321E-1,-3.134471E-1,1.2893023E-1,8.9021885E-1,2.783779E0,2.423282E0,-2.4889456E-2,-9.532142E-1,-9.417301E-1,-8.382569E-1,-7.700911E-1,-6.7024857E-1,-5.3593934E-1,-4.1099915E-1,-2.0323654E-1,-2.1777768E-2,3.0092254E-1,7.5677927E-3,9.5872E-3,2.0945303E0,1.6116804E-2,-3.1055281E-2,-6.728755E-2,-1.8360212E-2,-8.508182E-3,-1.3656299E-2,-1.1285488E-2,-9.240006E-3,-7.743545E-3,-6.8547786E-3,-5.8154175E-3,-4.713389E-3,-3.5928828E-3,-2.4169842E-3,-1.4501717E-3,-6.825409E-4,3.2993508E-4,1.3729173E-3,2.3189604E-3,3.0871634E-3,3.9888606E-3,5.0750636E-3,6.222064E-3,1.1373881E-2,1.3183634E-2],"split_indices":[2,2,2,2,2,2,2,3,2,2,2,2,2,2,2,0,0,3,2,2,2,2,2,2,2,2,2,0,0,2,0,0,0,0,0,0,0,0,0,0,0,0,0,0,0,0,0,0,0,0,0,0,0,0,0],"split_type":[0,0,0,0,0,0,0,0,0,0,0,0,0,0,0,0,0,0,0,0,0,0,0,0,0,0,0,0,0,0,0,0,0,0,0,0,0,0,0,0,0,0,0,0,0,0,0,0,0,0,0,0,0,0,0],"sum_hessian":[2.865E3,1.242E3,1.623E3,3.47E2,8.95E2,9.62E2,6.61E2,3.4E1,3.13E2,4.14E2,4.81E2,4.7E2,4.92E2,3.69E2,2.92E2,1.1E1,2.3E1,6.7E1,2.46E2,2.01E2,2.13E2,2.8E2,2.01E2,2.57E2,2.13E2,2.12E2,2.8E2,1.56E2,2.13E2,2.35E2,5.7E1,1E1,1E0,6.4E1,3E0,7.8E1,1.68E2,1.23E2,7.8E1,1.01E2,1.12E2,1.45E2,1.35E2,1.23E2,7.8E1,1.12E2,1.45E2,1.23E2,9E1,7.8E1,1.34E2,1.12E2,1.68E2,1.34E2,1.01E2],"tree_param":{"num_deleted":"0","num_feature":"4","num_nodes":"55","size_leaf_vector":"1"}},{"base_weights":[-6.052303E-4,-7.027284E-2,5.6223452E-2,-1.3433433E-1,-4.4306517E-2,2.8287558E-2,9.716645E-2,-2.5893363E-1,-1.16340764E-1,-6.4782605E-2,-2.6523313E-2,9.161549E-3,4.5610406E-2,8.418196E-2,1.2450496E-1,-3.653327E-1,-2.1505587E-1,-1.4523719E-1,-1.0272398E-1,-7.563897E-2,-5.474808E-2,-3.5968415E-2,-1.6085347E-2,1.5418153E-3,1.8433394E-2,3.5837974E-2,5.4372743E-2,7.3478796E-2,9.50929E-3,1.1846942E-2,1.6298065E-2,-2.823208E-2,-6.392317E-2,-2.2390569E-2,-9.049338E-3,-1.6606873E-2,-1.3237923E-2,-1.0923228E-2,-9.380484E-3,-8.160165E-3,-6.8993196E-3,-5.9175505E-3,-4.9836165E-3,-3.9873067E-3,-3.060516E-3,-2.0417403E-3,-1.0194045E-3,-2.7568842E-4,5.828081E-4,1.4335514E-3,2.231038E-3,3.0320368E-3,3.974137E-3,4.9219574E-3,5.798874E-3,6.6227727E-3,7.782227E-3],"categories":[],"categories_nodes":[],"categories_segments":[],"categories_sizes":[],"default_left":[0,0,0,0,0,0,0,0,0,0,0,0,0,0,0,0,0,0,0,0,0,0,0,0,0,0,0,0,0,0,0,0,0,0,0,0,0,0,0,0,0,0,0,0,0,0,0,0,0,0,0,0,0,0,0,0,0],"id":25,"left_children":[1,3,5,7,9,11,13,15,17,19,21,23,25,27,29,31,33,35,37,39,41,43,45,47,49,51,53,55,-1,-1,-1,-1,-1,-1,-1,-1,-1,-1,-1,-1,-1,-1,-1,-1,-1,-1,-1,-1,-1,-1,-1,-1,-1,-1,-1,-1,-1],"loss_changes":[1.1350785E1,2.13656E0,1.8032789E0,8.0165243E-1,3.325535E-1,3.1102002E-1,2.1670437E-1,1.3618636E-1,1.1335373E-1,4.2266726E-2,4.802513E-2,3.1622328E-2,4.0266752E-2,4.4045925E-2,2.8064966E-2,9.2374206E-2,1.8320441E-2,5.3367615E-3,2.8147697E-3,2.3745298E-3,1.9440055E-3,4.1826367E-3,5.8149323E-3,4.5671323E-3,2.8894246E-3,3.8778484E-3,1.9533634E-3,1.9322634E-3,0E0,0E0,0E0,0E0,0E0,0E0,0E0,0E0,0E0,0E0,0E0,0E0,0E0,0E0,0E0,0E0,0E0,0E0,0E0,0E0,0E0,0E0,0E0,0E0,0E0,0E0,0E0,0E0,0E0],"parents":[2147483647,0,0,1,1,2,2,3,3,4,4,5,5,6,6,7,7,8,8,9,9,10,10,11,11,12,12,13,13,14,14,15,15,16,16,17,17,18,18,19,19,20,20,21,21,22,22,23,23,24,24,25,25,26,26,27,27],"right_children":[2,4,6,8,10,12,14,16,18,20,22,24,26,28,30,32,34,36,38,40,42,44,46,48,50,52,54,56,-1,-1,-1,-1,-1,-1,-1,-1,-1,-1,-1,-1,-1,-1,-1,-1,-1,-1,-1,-1,-1,-1,-1,-1,-1,-1,-1,-1,-1],"split_conditions":[-4.5799032E-1,-8.7656134E-1,6.079429E-1,-1.0170597E0,-7.060676E-1,-8.5326105E-2,1.8806883E0,-1.23775E0,-9.513184E-1,-7.9896563E-1,-5.972825E-1,-2.9439232E-1,1.9218616E-1,1.1420974E0,3.1042497E0,2.423282E0,-1.1052641E0,-9.888431E-1,-9.118687E-1,-8.382569E-1,-7.5565386E-1,-6.5673727E-1,-5.20832E-1,-3.7420544E-1,-1.9345331E-1,2.5018467E-2,3.7424192E-1,7.984295E-1,9.50929E-3,1.1846942E-2,1.6298065E-2,-2.823208E-2,-6.392317E-2,-2.2390569E-2,-9.049338E-3,-1.6606873E-2,-1.3237923E-2,-1.0923228E-2,-9.380484E-3,-8.160165E-3,-6.8993196E-3,-5.9175505E-3,-4.9836165E-3,-3.9873067E-3,-3.060516E-3,-2.0417403E-3,-1.0194045E-3,-2.7568842E-4,5.828081E-4,1.4335514E-3,2.231038E-3,3.0320368E-3,3.974137E-3,4.9219574E-3,5.798874E-3,6.6227727E-3,7.782227E-3],"split_indices":[2,2,2,2,2,2,2,3,2,2,2,2,2,2,2,0,3,2,2,2,2,2,2,2,2,2,2,2,0,0,0,0,0,0,0,0,0,0,0,0,0,0,0,0,0,0,0,0,0,0,0,0,0,0,0,0,0],"split_type":[0,0,0,0,0,0,0,0,0,0,0,0,0,0,0,0,0,0,0,0,0,0,0,0,0,0,0,0,0,0,0,0,0,0,0,0,0,0,0,0,0,0,0,0,0,0,0,0,0,0,0,0,0,0,0,0,0],"sum_hessian":[2.865E3,1.287E3,1.578E3,3.7E2,9.17E2,9.39E2,6.39E2,4.5E1,3.25E2,4.25E2,4.92E2,4.47E2,4.92E2,4.36E2,2.03E2,1.1E1,3.4E1,1.01E2,2.24E2,2.01E2,2.24E2,2.57E2,2.35E2,2.46E2,2.01E2,2.35E2,2.57E2,2.24E2,2.12E2,1.79E2,2.4E1,1E1,1E0,3.1E1,3E0,3.4E1,6.7E1,1.23E2,1.01E2,1E2,1.01E2,1.12E2,1.12E2,1.45E2,1.12E2,1.34E2,1.01E2,1.23E2,1.23E2,1E2,1.01E2,1.01E2,1.34E2,1.12E2,1.45E2,9E1,1.34E2],"tree_param":{"num_deleted":"0","num_feature":"4","num_nodes":"57","size_leaf_vector":"1"}},{"base_weights":[-5.9217785E-4,-6.595914E-2,4.8663292E-2,-1.2996751E-1,-4.503388E-2,2.0996518E-2,8.396891E-2,-2.54965E-1,-1.13220744E-1,-6.5607004E-2,-2.9176997E-2,4.959893E-3,3.6952637E-2,6.591652E-2,1.0286694E-1,-3.36479E-1,-2.0358449E-2,-1.4723168E-1,-1.0121102E-1,-7.735842E-3,-5.6913808E-2,-3.8129695E-2,-1.9765982E-2,-1.9014548E-3,1.2893193E-2,2.8092703E-2,4.447925E-2,5.7398966E-3,7.2716284E-3,9.241727E-3,1.2062774E-1,-2.5665525E-2,-6.072702E-2,-1.49794845E-2,-6.87722E-3,-1.1397882E-2,-9.55331E-3,-6.1751525E-3,-5.2046264E-3,-4.2450256E-3,-3.3526698E-3,-2.3163632E-3,-1.3238855E-3,-6.16942E-4,1.6850755E-4,8.828262E-4,1.6412352E-3,2.429271E-3,3.1274182E-3,3.986049E-3,4.801585E-3,1.1289938E-2,1.4733429E-2],"categories":[],"categories_nodes":[],"categories_segments":[],"categories_sizes":[],"default_left":[0,0,0,0,0,0,0,0,0,0,0,0,0,0,0,0,0,0,0,0,0,0,0,0,0,0,0,0,0,0,0,0,0,0,0,0,0,0,0,0,0,0,0,0,0,0,0,0,0,0,0,0,0],"id":26,"left_children":[1,3,5,7,9,11,13,15,17,19,21,23,25,27,29,31,-1,33,35,-1,37,39,41,43,45,47,49,-1,-1,-1,51,-1,-1,-1,-1,-1,-1,-1,-1,-1,-1,-1,-1,-1,-1,-1,-1,-1,-1,-1,-1,-1,-1],"loss_changes":[9.230814E0,1.644278E0,1.5952926E0,6.054039E-1,3.0147576E-1,2.3471668E-1,2.3816824E-1,7.808614E-2,9.4974756E-2,3.686881E-2,4.3648183E-2,2.5009327E-2,2.942568E-2,1.7255783E-2,5.362463E-2,1.03527784E-1,0E0,3.3733845E-3,3.755331E-3,0E0,2.3433566E-3,3.9265156E-3,5.437158E-3,3.7912712E-3,2.9021017E-3,1.8274337E-3,2.1207333E-3,0E0,0E0,0E0,9.372115E-3,0E0,0E0,0E0,0E0,0E0,0E0,0E0,0E0,0E0,0E0,0E0,0E0,0E0,0E0,0E0,0E0,0E0,0E0,0E0,0E0,0E0,0E0],"parents":[2147483647,0,0,1,1,2,2,3,3,4,4,5,5,6,6,7,7,8,8,9,9,10,10,11,11,12,12,13,13,14,14,15,15,17,17,18,18,20,20,21,21,22,22,23,23,24,24,25,25,26,26,30,30],"right_children":[2,4,6,8,10,12,14,16,18,20,22,24,26,28,30,32,-1,34,36,-1,38,40,42,44,46,48,50,-1,-1,-1,52,-1,-1,-1,-1,-1,-1,-1,-1,-1,-1,-1,-1,-1,-1,-1,-1,-1,-1,-1,-1,-1,-1],"split_conditions":[-4.9787858E-1,-8.9777255E-1,4.7619215E-1,-1.0290481E0,-7.430441E-1,-1.4423259E-1,1.3663075E0,-1.23775E0,-9.734921E-1,-8.382569E-1,-6.4152026E-1,-3.2611775E-1,1.08340375E-1,7.984295E-1,2.3021102E0,2.423282E0,-2.0358449E-2,-9.532142E-1,-9.4918627E-1,-7.735842E-3,-7.960416E-1,-6.9410354E-1,-5.4780596E-1,-4.1757816E-1,-2.524207E-1,-2.1777768E-2,2.6434812E-1,5.7398966E-3,7.2716284E-3,9.241727E-3,3.1042497E0,-2.5665525E-2,-6.072702E-2,-1.49794845E-2,-6.87722E-3,-1.1397882E-2,-9.55331E-3,-6.1751525E-3,-5.2046264E-3,-4.2450256E-3,-3.3526698E-3,-2.3163632E-3,-1.3238855E-3,-6.16942E-4,1.6850755E-4,8.828262E-4,1.6412352E-3,2.429271E-3,3.1274182E-3,3.986049E-3,4.801585E-3,1.1289938E-2,1.4733429E-2],"split_indices":[2,2,2,2,2,2,2,3,2,2,2,2,2,2,2,0,0,3,2,0,2,2,2,2,2,2,2,0,0,0,2,0,0,0,0,0,0,0,0,0,0,0,0,0,0,0,0,0,0,0,0,0,0],"split_type":[0,0,0,0,0,0,0,0,0,0,0,0,0,0,0,0,0,0,0,0,0,0,0,0,0,0,0,0,0,0,0,0,0,0,0,0,0,0,0,0,0,0,0,0,0,0,0,0,0,0,0,0,0],"sum_hessian":[2.865E3,1.231E3,1.634E3,3.02E2,9.29E2,9.17E2,7.17E2,3.4E1,2.68E2,4.03E2,5.26E2,4.58E2,4.59E2,3.69E2,3.48E2,1.1E1,2.3E1,6.7E1,2.01E2,1.68E2,2.35E2,2.68E2,2.58E2,2.46E2,2.12E2,2.13E2,2.46E2,1.68E2,2.01E2,2.23E2,1.25E2,1E1,1E0,6.4E1,3E0,5.6E1,1.45E2,1.12E2,1.23E2,1.34E2,1.34E2,1.68E2,9E1,1.12E2,1.34E2,1E2,1.12E2,1.01E2,1.12E2,1.12E2,1.34E2,1.01E2,2.4E1],"tree_param":{"num_deleted":"0","num_feature":"4","num_nodes":"53","size_leaf_vector":"1"}},{"base_weights":[-5.731624E-4,-5.9509296E-2,4.3836556E-2,-1.1746432E-1,-4.056319E-2,1.925055E-2,7.6080635E-2,-2.5976127E-1,-1.04847915E-1,-5.7779696E-2,-2.518511E-2,5.173971E-3,3.435247E-2,5.9730396E-2,9.268137E-2,-2.1706522E-1,-3.7859318E-1,-1.473202E-2,-9.357217E-2,-6.805742E-2,-4.8694286E-2,-3.1641256E-2,-1.5806174E-2,-5.531016E-4,1.3827118E-2,2.642203E-2,4.0699016E-2,5.2000936E-3,6.5480517E-3,8.3878795E-3,1.1009126E-1,-3.0218929E-2,-5.1605436E-3,-4.9724367E-2,-1.3374495E-2,-1.06298495E-2,-8.604511E-3,-7.255222E-3,-6.0239756E-3,-5.221208E-3,-4.3560993E-3,-3.579887E-3,-2.7266925E-3,-1.8788058E-3,-1.1929701E-3,-4.339838E-4,3.8548294E-4,1.0893326E-3,1.6963597E-3,2.36236E-3,2.9575897E-3,3.6840744E-3,4.422907E-3,1.0245162E-2,1.331903E-2],"categories":[],"categories_nodes":[],"categories_segments":[],"categories_sizes":[],"default_left":[0,0,0,0,0,0,0,0,0,0,0,0,0,0,0,0,0,0,0,0,0,0,0,0,0,0,0,0,0,0,0,0,0,0,0,0,0,0,0,0,0,0,0,0,0,0,0,0,0,0,0,0,0,0,0],"id":27,"left_children":[1,3,5,7,9,11,13,15,17,19,21,23,25,27,29,31,33,-1,35,37,39,41,43,45,47,49,51,-1,-1,-1,53,-1,-1,-1,-1,-1,-1,-1,-1,-1,-1,-1,-1,-1,-1,-1,-1,-1,-1,-1,-1,-1,-1,-1,-1],"loss_changes":[7.503897E0,1.3479986E0,1.2946863E0,5.167327E-1,2.4476862E-1,1.973122E-1,1.8636274E-1,3.9588213E-2,1.2030864E-1,3.758526E-2,2.935192E-2,2.3894217E-2,2.147293E-2,1.255095E-2,4.4250727E-2,2.6609755E-1,7.8752995E-2,0E0,1.2310982E-2,2.7626753E-3,1.9872785E-3,4.3162107E-3,2.1223798E-3,4.8740054E-3,1.581952E-3,1.084134E-3,1.734674E-3,0E0,0E0,0E0,6.471753E-3,0E0,0E0,0E0,0E0,0E0,0E0,0E0,0E0,0E0,0E0,0E0,0E0,0E0,0E0,0E0,0E0,0E0,0E0,0E0,0E0,0E0,0E0,0E0,0E0],"parents":[2147483647,0,0,1,1,2,2,3,3,4,4,5,5,6,6,7,7,8,8,9,9,10,10,11,11,12,12,13,13,14,14,15,15,16,16,18,18,19,19,20,20,21,21,22,22,23,23,24,24,25,25,26,26,30,30],"right_children":[2,4,6,8,10,12,14,16,18,20,22,24,26,28,30,32,34,-1,36,38,40,42,44,46,48,50,52,-1,-1,-1,54,-1,-1,-1,-1,-1,-1,-1,-1,-1,-1,-1,-1,-1,-1,-1,-1,-1,-1,-1,-1,-1,-1,-1,-1],"split_conditions":[-4.9787858E-1,-8.9777255E-1,4.9596572E-1,-1.0387948E0,-7.2738844E-1,-1.1534587E-1,1.3663075E0,2.2511106E0,-9.888431E-1,-8.268046E-1,-6.0683423E-1,-3.010201E-1,1.17234215E-1,7.984295E-1,2.3867967E0,8.332298E-1,2.6562195E0,-1.473202E-2,-9.4918627E-1,-8.5770154E-1,-7.755736E-1,-6.788744E-1,-5.4780596E-1,-3.941983E-1,-2.0323654E-1,1.3261536E-2,3.0092254E-1,5.2000936E-3,6.5480517E-3,8.3878795E-3,3.1042497E0,-3.0218929E-2,-5.1605436E-3,-4.9724367E-2,-1.3374495E-2,-1.06298495E-2,-8.604511E-3,-7.255222E-3,-6.0239756E-3,-5.221208E-3,-4.3560993E-3,-3.579887E-3,-2.7266925E-3,-1.8788058E-3,-1.1929701E-3,-4.339838E-4,3.8548294E-4,1.0893326E-3,1.6963597E-3,2.36236E-3,2.9575897E-3,3.6840744E-3,4.422907E-3,1.0245162E-2,1.331903E-2],"split_indices":[2,2,2,2,2,2,2,0,2,2,2,2,2,2,2,0,0,0,2,2,2,2,2,2,2,2,2,0,0,0,2,0,0,0,0,0,0,0,0,0,0,0,0,0,0,0,0,0,0,0,0,0,0,0,0],"split_type":[0,0,0,0,0,0,0,0,0,0,0,0,0,0,0,0,0,0,0,0,0,0,0,0,0,0,0,0,0,0,0,0,0,0,0,0,0,0,0,0,0,0,0,0,0,0,0,0,0,0,0,0,0,0,0],"sum_hessian":[2.865E3,1.231E3,1.634E3,3.02E2,9.29E2,9.28E2,7.06E2,2.3E1,2.79E2,4.37E2,4.92E2,4.81E2,4.47E2,3.58E2,3.48E2,1.9E1,4E0,5.6E1,2.23E2,2.02E2,2.35E2,2.9E2,2.02E2,2.9E2,1.91E2,2.01E2,2.46E2,1.57E2,2.01E2,2.35E2,1.13E2,1.2E1,7E0,2E0,2E0,7.8E1,1.45E2,1.23E2,7.9E1,1.34E2,1.01E2,1.45E2,1.45E2,1.12E2,9E1,1.56E2,1.34E2,1.01E2,9E1,1.11E2,9E1,1.23E2,1.23E2,8.9E1,2.4E1],"tree_param":{"num_deleted":"0","num_feature":"4","num_nodes":"55","size_leaf_vector":"1"}},{"base_weights":[-5.5243366E-4,-5.20648E-2,4.076141E-2,-1.0247445E-1,-3.393701E-2,2.0904785E-2,7.199053E-2,-2.1288987E-1,-8.9382E-2,-4.9139977E-2,-2.0052904E-2,6.714183E-3,3.412476E-2,6.217846E-2,9.1598466E-2,-2.8534353E-1,-1.6779263E-2,-1.1964199E-1,-8.028428E-2,-5.774965E-2,-4.116116E-2,-2.6625108E-2,-1.2041531E-2,8.52467E-4,1.3810287E-2,2.682043E-2,4.0406164E-2,5.477694E-3,6.9711856E-3,8.708881E-3,1.20404055E-2,-2.1091213E-2,-5.5204447E-2,-1.2173981E-2,-5.564189E-3,-8.928762E-3,-7.412272E-3,-6.3724364E-3,-5.2947444E-3,-4.4795256E-3,-3.7517499E-3,-2.9699353E-3,-2.2765927E-3,-1.4786064E-3,-7.7909365E-4,-2.6311068E-4,4.0223985E-4,1.0477336E-3,1.6667083E-3,2.333841E-3,3.0404062E-3,3.655752E-3,4.291884E-3],"categories":[],"categories_nodes":[],"categories_segments":[],"categories_sizes":[],"default_left":[0,0,0,0,0,0,0,0,0,0,0,0,0,0,0,0,0,0,0,0,0,0,0,0,0,0,0,0,0,0,0,0,0,0,0,0,0,0,0,0,0,0,0,0,0,0,0,0,0,0,0,0,0],"id":28,"left_children":[1,3,5,7,9,11,13,15,17,19,21,23,25,27,29,31,-1,33,35,37,39,41,43,45,47,49,51,-1,-1,-1,-1,-1,-1,-1,-1,-1,-1,-1,-1,-1,-1,-1,-1,-1,-1,-1,-1,-1,-1,-1,-1,-1,-1],"loss_changes":[6.101469E0,1.1625507E0,9.850819E-1,4.681418E-1,1.9742942E-1,1.8249267E-1,1.1320424E-1,6.648266E-2,7.380962E-2,2.8398395E-2,2.563703E-2,1.9579638E-2,2.2040606E-2,1.9321322E-2,1.6014338E-2,1.2177807E-1,0E0,2.3558736E-3,6.4737797E-3,2.7372837E-3,1.4443696E-3,2.5271624E-3,2.4979636E-3,2.8706398E-3,1.8534698E-3,2.2352785E-3,1.0322928E-3,0E0,0E0,0E0,0E0,0E0,0E0,0E0,0E0,0E0,0E0,0E0,0E0,0E0,0E0,0E0,0E0,0E0,0E0,0E0,0E0,0E0,0E0,0E0,0E0,0E0,0E0],"parents":[2147483647,0,0,1,1,2,2,3,3,4,4,5,5,6,6,7,7,8,8,9,9,10,10,11,11,12,12,13,13,14,14,15,15,17,17,18,18,19,19,20,20,21,21,22,22,23,23,24,24,25,25,26,26],"right_children":[2,4,6,8,10,12,14,16,18,20,22,24,26,28,30,32,-1,34,36,38,40,42,44,46,48,50,52,-1,-1,-1,-1,-1,-1,-1,-1,-1,-1,-1,-1,-1,-1,-1,-1,-1,-1,-1,-1,-1,-1,-1,-1,-1,-1],"split_conditions":[-4.6184024E-1,-8.8660043E-1,6.461742E-1,-1.0290481E0,-7.0938146E-1,-7.704143E-2,1.8806883E0,-1.23775E0,-9.734921E-1,-8.0572736E-1,-5.972825E-1,-2.9439232E-1,2.1215467E-1,1.1782088E0,3.1042497E0,2.423282E0,-1.6779263E-2,-9.532142E-1,-9.3867207E-1,-8.5770154E-1,-7.654736E-1,-6.6111106E-1,-5.20832E-1,-3.848415E-1,-1.9345331E-1,6.155632E-2,3.9665928E-1,5.477694E-3,6.9711856E-3,8.708881E-3,1.20404055E-2,-2.1091213E-2,-5.5204447E-2,-1.2173981E-2,-5.564189E-3,-8.928762E-3,-7.412272E-3,-6.3724364E-3,-5.2947444E-3,-4.4795256E-3,-3.7517499E-3,-2.9699353E-3,-2.2765927E-3,-1.4786064E-3,-7.7909365E-4,-2.6311068E-4,4.0223985E-4,1.0477336E-3,1.6667083E-3,2.333841E-3,3.0404062E-3,3.655752E-3,4.291884E-3],"split_indices":[2,2,2,2,2,2,2,3,2,2,2,2,2,2,2,0,0,3,2,2,2,2,2,2,2,2,2,0,0,0,0,0,0,0,0,0,0,0,0,0,0,0,0,0,0,0,0,0,0,0,0,0,0],"split_type":[0,0,0,0,0,0,0,0,0,0,0,0,0,0,0,0,0,0,0,0,0,0,0,0,0,0,0,0,0,0,0,0,0,0,0,0,0,0,0,0,0,0,0,0,0,0,0,0,0,0,0,0,0],"sum_hessian":[2.865E3,1.275E3,1.59E3,3.36E2,9.39E2,9.73E2,6.17E2,3.4E1,3.02E2,4.47E2,4.92E2,4.7E2,5.03E2,4.14E2,2.03E2,1.1E1,2.3E1,6.7E1,2.35E2,2.12E2,2.35E2,2.69E2,2.23E2,2.58E2,2.12E2,2.35E2,2.68E2,2.13E2,2.01E2,1.79E2,2.4E1,1E1,1E0,6.4E1,3E0,9E1,1.45E2,8.9E1,1.23E2,1.12E2,1.23E2,1.46E2,1.23E2,1.34E2,8.9E1,1.23E2,1.35E2,1E2,1.12E2,1.23E2,1.12E2,1.12E2,1.56E2],"tree_param":{"num_deleted":"0","num_feature":"4","num_nodes":"53","size_leaf_vector":"1"}},{"base_weights":[-5.339198E-4,-4.8452925E-2,3.5574183E-2,-1.1963399E-1,-3.794589E-2,1.6150298E-2,6.248884E-2,-2.1841066E-1,-1.0118751E-1,-5.705604E-2,-2.3613723E-2,4.197376E-3,2.8374039E-2,5.0569896E-2,7.7260375E-2,-1.7924708E-1,-3.313828E-1,-1.237346E-1,-8.853913E-3,-6.625401E-2,-4.7154814E-2,-3.1036498E-2,-1.5271202E-2,-1.7083843E-3,9.823133E-3,2.1740902E-2,3.3740256E-2,4.395834E-3,5.618325E-3,7.206662E-2,9.804653E-2,-2.5681634E-2,-3.0791133E-3,-4.386623E-2,-1.1364246E-2,-1.3600963E-2,-9.479428E-3,-7.132329E-3,-6.110012E-3,-5.099609E-3,-4.289624E-3,-3.4795802E-3,-2.6189163E-3,-1.95876E-3,-1.1486489E-3,-4.665991E-4,1.00063124E-4,6.5860595E-4,1.2980988E-3,1.9416651E-3,2.4701639E-3,3.0140341E-3,3.6295396E-3,6.701878E-3,7.858543E-3,8.930305E-3,1.1914724E-2],"categories":[],"categories_nodes":[],"categories_segments":[],"categories_sizes":[],"default_left":[0,0,0,0,0,0,0,0,0,0,0,0,0,0,0,0,0,0,0,0,0,0,0,0,0,0,0,0,0,0,0,0,0,0,0,0,0,0,0,0,0,0,0,0,0,0,0,0,0,0,0,0,0,0,0,0,0],"id":29,"left_children":[1,3,5,7,9,11,13,15,17,19,21,23,25,27,29,31,33,35,-1,37,39,41,43,45,47,49,51,-1,-1,53,55,-1,-1,-1,-1,-1,-1,-1,-1,-1,-1,-1,-1,-1,-1,-1,-1,-1,-1,-1,-1,-1,-1,-1,-1,-1,-1],"loss_changes":[4.9606614E0,9.1687536E-1,8.537476E-1,2.6578832E-1,2.9308438E-1,1.3883096E-1,1.1669493E-1,4.678607E-2,2.7544498E-2,3.876841E-2,3.7671626E-2,1.603093E-2,1.599601E-2,1.1707485E-2,2.5753498E-2,2.2240466E-1,6.694466E-2,3.4483075E-3,0E0,1.8080473E-3,1.493156E-3,5.0110817E-3,4.5452192E-3,1.8955485E-3,2.4393927E-3,9.861365E-4,1.2792349E-3,0E0,0E0,2.861023E-3,6.0379505E-5,0E0,0E0,0E0,0E0,0E0,0E0,0E0,0E0,0E0,0E0,0E0,0E0,0E0,0E0,0E0,0E0,0E0,0E0,0E0,0E0,0E0,0E0,0E0,0E0,0E0,0E0],"parents":[2147483647,0,0,1,1,2,2,3,3,4,4,5,5,6,6,7,7,8,8,9,9,10,10,11,11,12,12,13,13,14,14,15,15,16,16,17,17,19,19,20,20,21,21,22,22,23,23,24,24,25,25,26,26,29,29,30,30],"right_children":[2,4,6,8,10,12,14,16,18,20,22,24,26,28,30,32,34,36,-1,38,40,42,44,46,48,50,52,-1,-1,54,56,-1,-1,-1,-1,-1,-1,-1,-1,-1,-1,-1,-1,-1,-1,-1,-1,-1,-1,-1,-1,-1,-1,-1,-1,-1,-1],"split_conditions":[-4.9787858E-1,-9.4918627E-1,5.314802E-1,-1.0387948E0,-7.857711E-1,-1.1534587E-1,1.5214868E0,2.2511106E0,-1.0006123E0,-8.6816704E-1,-6.5673727E-1,-3.3380547E-1,1.2893023E-1,8.9021885E-1,2.783779E0,8.332298E-1,2.6562195E0,-1.0808909E0,-8.853913E-3,-9.118687E-1,-8.268046E-1,-7.060676E-1,-5.844169E-1,-4.1757816E-1,-2.406516E-1,2.5018467E-2,3.0092254E-1,4.395834E-3,5.618325E-3,2.0945303E0,3.2250962E0,-2.5681634E-2,-3.0791133E-3,-4.386623E-2,-1.1364246E-2,-1.3600963E-2,-9.479428E-3,-7.132329E-3,-6.110012E-3,-5.099609E-3,-4.289624E-3,-3.4795802E-3,-2.6189163E-3,-1.95876E-3,-1.1486489E-3,-4.665991E-4,1.00063124E-4,6.5860595E-4,1.2980988E-3,1.9416651E-3,2.4701639E-3,3.0140341E-3,3.6295396E-3,6.701878E-3,7.858543E-3,8.930305E-3,1.1914724E-2],"split_indices":[2,2,2,2,2,2,2,0,2,2,2,2,2,2,2,0,0,3,0,2,2,2,2,2,2,2,2,0,0,2,2,0,0,0,0,0,0,0,0,0,0,0,0,0,0,0,0,0,0,0,0,0,0,0,0,0,0],"split_type":[0,0,0,0,0,0,0,0,0,0,0,0,0,0,0,0,0,0,0,0,0,0,0,0,0,0,0,0,0,0,0,0,0,0,0,0,0,0,0,0,0,0,0,0,0,0,0,0,0,0,0,0,0,0,0,0,0],"sum_hessian":[2.865E3,1.231E3,1.634E3,1.57E2,1.074E3,9.5E2,6.84E2,2.3E1,1.34E2,4.59E2,6.15E2,4.81E2,4.69E2,3.81E2,3.03E2,1.9E1,4E0,4.5E1,8.9E1,2.35E2,2.24E2,3.24E2,2.91E2,2.35E2,2.46E2,2.12E2,2.57E2,1.79E2,2.02E2,2.46E2,5.7E1,1.2E1,7E0,2E0,2E0,2.9E1,1.6E1,1.12E2,1.23E2,1.12E2,1.12E2,1.79E2,1.45E2,1.34E2,1.57E2,1.12E2,1.23E2,1.23E2,1.23E2,1.23E2,8.9E1,1.12E2,1.45E2,1.45E2,1.01E2,4.4E1,1.3E1],"tree_param":{"num_deleted":"0","num_feature":"4","num_nodes":"57","size_leaf_vector":"1"}},{"base_weights":[-5.117959E-4,-4.444674E-2,3.1525515E-2,-1.1762939E-1,-3.5974596E-2,1.2804743E-2,5.4675505E-2,-2.4015163E-1,-1.0249294E-1,-5.4470994E-2,-2.2930143E-2,2.3021107E-3,2.330236E-2,4.273865E-2,6.7960635E-2,-5.3651262E-2,-1.7074549E-1,-1.2478377E-1,-8.59066E-3,-6.305754E-2,-4.5680515E-2,-3.061021E-2,-1.5936127E-2,-2.6719242E-3,7.0345504E-3,1.775899E-2,2.851068E-2,3.721622E-3,4.7776112E-3,6.0696346E-3,8.033555E-2,-8.567435E-3,-3.9740082E-2,-3.1245789E-3,-1.2832536E-2,-6.749116E-3,-5.6989957E-3,-5.1318E-3,-4.2340094E-3,-3.3792325E-3,-2.639993E-3,-1.9645246E-3,-1.1582129E-3,-4.493941E-4,1.1103419E-5,4.472075E-4,9.784218E-4,1.497515E-3,1.9905705E-3,2.6011486E-3,3.1023086E-3,7.6186755E-3,1.08084E-2],"categories":[],"categories_nodes":[],"categories_segments":[],"categories_sizes":[],"default_left":[0,0,0,0,0,0,0,0,0,0,0,0,0,0,0,0,0,0,0,0,0,0,0,0,0,0,0,0,0,0,0,0,0,0,0,0,0,0,0,0,0,0,0,0,0,0,0,0,0,0,0,0,0],"id":30,"left_children":[1,3,5,7,9,11,13,15,17,19,21,23,25,27,29,-1,31,33,-1,35,37,39,41,43,45,47,49,-1,-1,-1,51,-1,-1,-1,-1,-1,-1,-1,-1,-1,-1,-1,-1,-1,-1,-1,-1,-1,-1,-1,-1,-1,-1],"loss_changes":[4.0354614E0,7.4536514E-1,7.178533E-1,2.0720518E-1,2.6053476E-1,1.0115825E-1,1.1460519E-1,1.7579341E-1,3.1058908E-2,3.0934453E-2,3.3782035E-2,1.0846883E-2,1.2745783E-2,9.154856E-3,2.6497126E-2,0E0,1.9733489E-1,1.1228979E-2,0E0,2.1796227E-3,2.0642877E-3,3.1673908E-3,5.198702E-3,1.1413834E-3,1.6190894E-3,1.0465309E-3,6.686002E-4,0E0,0E0,0E0,6.270945E-3,0E0,0E0,0E0,0E0,0E0,0E0,0E0,0E0,0E0,0E0,0E0,0E0,0E0,0E0,0E0,0E0,0E0,0E0,0E0,0E0,0E0,0E0],"parents":[2147483647,0,0,1,1,2,2,3,3,4,4,5,5,6,6,7,7,8,8,9,9,10,10,11,11,12,12,13,13,14,14,16,16,17,17,19,19,20,20,21,21,22,22,23,23,24,24,25,25,26,26,30,30],"right_children":[2,4,6,8,10,12,14,16,18,20,22,24,26,28,30,-1,32,34,-1,36,38,40,42,44,46,48,50,-1,-1,-1,52,-1,-1,-1,-1,-1,-1,-1,-1,-1,-1,-1,-1,-1,-1,-1,-1,-1,-1,-1,-1,-1,-1],"split_conditions":[-5.1095134E-1,-9.6143055E-1,4.4730544E-1,-1.0505518E0,-7.9896563E-1,-1.690866E-1,1.3663075E0,4.5850414E-1,-1.0808909E0,-8.832744E-1,-6.827365E-1,-3.565274E-1,9.300154E-2,7.984295E-1,2.3021102E0,-5.3651262E-2,2.423282E0,-1.23775E0,-8.59066E-3,-9.183015E-1,-8.5770154E-1,-7.2738844E-1,-5.972825E-1,-4.1757816E-1,-2.7578837E-1,-5.389307E-2,2.6434812E-1,3.721622E-3,4.7776112E-3,6.0696346E-3,3.2250962E0,-8.567435E-3,-3.9740082E-2,-3.1245789E-3,-1.2832536E-2,-6.749116E-3,-5.6989957E-3,-5.1318E-3,-4.2340094E-3,-3.3792325E-3,-2.639993E-3,-1.9645246E-3,-1.1582129E-3,-4.493941E-4,1.1103419E-5,4.472075E-4,9.784218E-4,1.497515E-3,1.9905705E-3,2.6011486E-3,3.1023086E-3,7.6186755E-3,1.08084E-2],"split_indices":[2,2,2,2,2,2,2,0,3,2,2,2,2,2,2,0,0,3,0,2,2,2,2,2,2,2,2,0,0,0,2,0,0,0,0,0,0,0,0,0,0,0,0,0,0,0,0,0,0,0,0,0,0],"split_type":[0,0,0,0,0,0,0,0,0,0,0,0,0,0,0,0,0,0,0,0,0,0,0,0,0,0,0,0,0,0,0,0,0,0,0,0,0,0,0,0,0,0,0,0,0,